{"learner":{"attributes":{"scikit_learn":"{\"_estimator_type\": \"classifier\"}"},"feature_names":[],"feature_types":[],"gradient_booster":{"model":{"gbtree_model_param":{"num_parallel_tree":"1","num_trees":"311"},"iteration_indptr":[0,1,2,3,4,5,6,7,8,9,10,11,12,13,14,15,16,17,18,19,20,21,22,23,24,25,26,27,28,29,30,31,32,33,34,35,36,37,38,39,40,41,42,43,44,45,46,47,48,49,50,51,52,53,54,55,56,57,58,59,60,61,62,63,64,65,66,67,68,69,70,71,72,73,74,75,76,77,78,79,80,81,82,83,84,85,86,87,88,89,90,91,92,93,94,95,96,97,98,99,100,101,102,103,104,105,106,107,108,109,110,111,112,113,114,115,116,117,118,119,120,121,122,123,124,125,126,127,128,129,130,131,132,133,134,135,136,137,138,139,140,141,142,143,144,145,146,147,148,149,150,151,152,153,154,155,156,157,158,159,160,161,162,163,164,165,166,167,168,169,170,171,172,173,174,175,176,177,178,179,180,181,182,183,184,185,186,187,188,189,190,191,192,193,194,195,196,197,198,199,200,201,202,203,204,205,206,207,208,209,210,211,212,213,214,215,216,217,218,219,220,221,222,223,224,225,226,227,228,229,230,231,232,233,234,235,236,237,238,239,240,241,242,243,244,245,246,247,248,249,250,251,252,253,254,255,256,257,258,259,260,261,262,263,264,265,266,267,268,269,270,271,272,273,274,275,276,277,278,279,280,281,282,283,284,285,286,287,288,289,290,291,292,293,294,295,296,297,298,299,300,301,302,303,304,305,306,307,308,309,310,311],"tree_info":[0,0,0,0,0,0,0,0,0,0,0,0,0,0,0,0,0,0,0,0,0,0,0,0,0,0,0,0,0,0,0,0,0,0,0,0,0,0,0,0,0,0,0,0,0,0,0,0,0,0,0,0,0,0,0,0,0,0,0,0,0,0,0,0,0,0,0,0,0,0,0,0,0,0,0,0,0,0,0,0,0,0,0,0,0,0,0,0,0,0,0,0,0,0,0,0,0,0,0,0,0,0,0,0,0,0,0,0,0,0,0,0,0,0,0,0,0,0,0,0,0,0,0,0,0,0,0,0,0,0,0,0,0,0,0,0,0,0,0,0,0,0,0,0,0,0,0,0,0,0,0,0,0,0,0,0,0,0,0,0,0,0,0,0,0,0,0,0,0,0,0,0,0,0,0,0,0,0,0,0,0,0,0,0,0,0,0,0,0,0,0,0,0,0,0,0,0,0,0,0,0,0,0,0,0,0,0,0,0,0,0,0,0,0,0,0,0,0,0,0,0,0,0,0,0,0,0,0,0,0,0,0,0,0,0,0,0,0,0,0,0,0,0,0,0,0,0,0,0,0,0,0,0,0,0,0,0,0,0,0,0,0,0,0,0,0,0,0,0,0,0,0,0,0,0,0,0,0,0,0,0,0,0,0,0,0,0,0,0,0,0,0,0,0,0,0,0,0,0,0,0,0,0,0,0,0,0,0,0,0,0],"trees":[{"base_weights":[1.0358124E0,-4.0383434E0,1.0516038E0,-2.5818896E0,-5.913002E0,7.9560065E-1,1.1371076E0,-1.9637618E0,-1.9916592E0,-7.1687336E0,-2.1717365E0,-7.525801E0,8.2145524E-1,1.1376947E0,-1.9880338E0,-1.5611025E0,-7.143522E0,-7.829024E0,-5.5276217E0,-4.794447E-1,-7.1054373E0,-2.7048402E0,-7.8845434E0,1.027935E0,2.856338E-1,1.0677028E0,1.1386123E0,-1.9895297E0,-1.2412113E0,-7.84112E0,-2.0544229E0,-6.9242587E0,-8.020653E0,-2.9892097E0,-7.13426E0,-1.9846326E0,4.6922818E-1,-1.9897926E0,-1.7526128E0,-1.9806391E0,2.4647084E-1,-8.025874E0,-3.2618387E0,-1.9917604E0,1.0376371E0,3.1512773E-1,-7.888206E0,1.1018993E0,-7.499468E0,1.1392756E0,1.1269633E0,-8.552346E-1,-1.8950129E-1,-1.990498E0,-8.4353226E-1,-1.923611E0,-4.0923405E-2,-1.8604119E0,-1.5438375E-1,-1.8825024E0,-1.9925662E0,-3.5925823E-1,-1.9840311E0,-1.4965752E0,-1.9905409E0,2.511537E-1,-1.975675E0,-1.9325362E0,2.0300281E-1,-1.9104953E0,2.3882441E-1,-1.992651E0,-1.6606045E0,-2.6420562E-2,-1.9656048E0,2.6493528E-1,1.3651317E-1,2.2159031E-1,2.3965834E-2,-1.9919349E0,-1.59053E0,-3.924948E-1,2.750013E-1,-1.9863064E0,-2.8072873E-1,2.7795038E-1,2.819244E-1,-1.9864004E0,2.8083542E-1],"categories":[],"categories_nodes":[],"categories_segments":[],"categories_sizes":[],"default_left":[0,0,0,0,0,0,0,0,0,0,0,0,0,0,0,0,0,0,0,0,0,0,0,0,0,0,0,0,0,0,0,0,0,0,0,0,0,0,0,0,0,0,0,0,0,0,0,0,0,0,0,0,0,0,0,0,0,0,0,0,0,0,0,0,0,0,0,0,0,0,0,0,0,0,0,0,0,0,0,0,0,0,0,0,0,0,0,0,0],"id":0,"left_children":[1,3,5,7,9,11,13,15,-1,17,19,21,23,25,-1,27,29,31,33,35,37,39,41,43,45,47,49,-1,51,53,55,57,59,61,63,-1,65,-1,67,-1,69,71,73,-1,75,77,79,81,83,85,87,-1,-1,-1,-1,-1,-1,-1,-1,-1,-1,-1,-1,-1,-1,-1,-1,-1,-1,-1,-1,-1,-1,-1,-1,-1,-1,-1,-1,-1,-1,-1,-1,-1,-1,-1,-1,-1,-1],"loss_changes":[6.72386E5,7.1067E4,1.83109E5,4.952185E4,5.3457594E4,4.5061588E5,3.378E4,2.7449887E4,0E0,9.190531E3,2.3889793E4,1.1198406E4,2.3100288E5,4.01E2,0E0,2.532242E4,3.354457E3,9.9759375E2,9.963359E3,1.5259911E4,3.6559648E3,7.0561875E3,3.9183438E3,1.3277488E5,1.4001845E5,2.3783797E4,4.65E1,0E0,1.2258789E4,7.319883E2,1.2503977E3,4.0113945E3,8.96875E0,7.339376E3,1.4340469E3,0E0,8.756283E3,0E0,1.7257292E3,0E0,1.6724337E3,1.711875E2,2.670976E3,0E0,2.4389E4,7.333454E4,4.479453E2,2.1262969E3,1.0797891E3,3.45E1,2.5346688E4,0E0,0E0,0E0,0E0,0E0,0E0,0E0,0E0,0E0,0E0,0E0,0E0,0E0,0E0,0E0,0E0,0E0,0E0,0E0,0E0,0E0,0E0,0E0,0E0,0E0,0E0,0E0,0E0,0E0,0E0,0E0,0E0,0E0,0E0,0E0,0E0,0E0,0E0],"parents":[2147483647,0,0,1,1,2,2,3,3,4,4,5,5,6,6,7,7,9,9,10,10,11,11,12,12,13,13,15,15,16,16,17,17,18,18,19,19,20,20,21,21,22,22,23,23,24,24,25,25,26,26,28,28,29,29,30,30,31,31,32,32,33,33,34,34,36,36,38,38,40,40,41,41,42,42,44,44,45,45,46,46,47,47,48,48,49,49,50,50],"right_children":[2,4,6,8,10,12,14,16,-1,18,20,22,24,26,-1,28,30,32,34,36,38,40,42,44,46,48,50,-1,52,54,56,58,60,62,64,-1,66,-1,68,-1,70,72,74,-1,76,78,80,82,84,86,88,-1,-1,-1,-1,-1,-1,-1,-1,-1,-1,-1,-1,-1,-1,-1,-1,-1,-1,-1,-1,-1,-1,-1,-1,-1,-1,-1,-1,-1,-1,-1,-1,-1,-1,-1,-1,-1,-1],"split_conditions":[-4.1169655E-1,-3.169805E-1,9.7354114E-1,7.2556055E-1,1.3351682E0,-1.3353046E0,1.7302737E0,1.1387789E0,-1.9916592E0,-4.196919E-1,-1.0503579E-1,-1.7225819E0,-2.8703347E-1,1.1436793E0,-1.9880338E0,-2.026744E-1,-3.183354E-1,-1.2189865E0,-8.7720245E-1,-7.298987E-1,1.3510714E0,2.376516E-1,7.91267E-1,-1.2097015E0,1.464981E0,1.9748454E-1,1.4748089E0,-1.9895297E0,-3.1861898E-1,1.3284653E0,1.2195944E0,-1.270216E0,-3.1659117E-1,1.3081256E-1,-2.3834138E-1,-1.9846326E0,2.2150341E-2,-1.9897926E0,-4.14383E-1,-1.9806391E0,-3.1498125E-1,6.374817E-1,-1.1604385E0,-1.9917604E0,1.219344E0,-1.0798398E0,2.8370655E0,-1.2097015E0,3.348067E0,1.2984143E0,3.0761468E0,-8.552346E-1,-1.8950129E-1,-1.990498E0,-8.4353226E-1,-1.923611E0,-4.0923405E-2,-1.8604119E0,-1.5438375E-1,-1.8825024E0,-1.9925662E0,-3.5925823E-1,-1.9840311E0,-1.4965752E0,-1.9905409E0,2.511537E-1,-1.975675E0,-1.9325362E0,2.0300281E-1,-1.9104953E0,2.3882441E-1,-1.992651E0,-1.6606045E0,-2.6420562E-2,-1.9656048E0,2.6493528E-1,1.3651317E-1,2.2159031E-1,2.3965834E-2,-1.9919349E0,-1.59053E0,-3.924948E-1,2.750013E-1,-1.9863064E0,-2.8072873E-1,2.7795038E-1,2.819244E-1,-1.9864004E0,2.8083542E-1],"split_indices":[3,2,3,0,1,9,9,6,0,3,0,6,3,3,0,9,2,1,7,6,0,3,3,9,9,9,9,0,2,7,9,1,2,0,0,0,6,0,3,0,2,3,1,0,9,9,2,9,2,3,3,0,0,0,0,0,0,0,0,0,0,0,0,0,0,0,0,0,0,0,0,0,0,0,0,0,0,0,0,0,0,0,0,0,0,0,0,0,0],"split_type":[0,0,0,0,0,0,0,0,0,0,0,0,0,0,0,0,0,0,0,0,0,0,0,0,0,0,0,0,0,0,0,0,0,0,0,0,0,0,0,0,0,0,0,0,0,0,0,0,0,0,0,0,0,0,0,0,0,0,0,0,0,0,0,0,0,0,0,0,0,0,0,0,0,0,0,0,0,0,0,0,0,0,0,0,0,0,0,0,0],"sum_hessian":[8.391322E6,2.6033111E4,8.3652885E6,1.4652057E4,1.1381056E4,2.0944368E6,6.270852E6,1.3165476E4,1.4865817E3,8.520342E3,2.860714E3,6.486344E3,2.0879504E6,6.2704515E6,4.0040076E2,1.2217059E4,9.4841705E2,6.0730996E3,2.447242E3,2.130899E3,7.298152E2,4.4983017E2,6.036514E3,1.5071619E6,5.8078856E5,8.115321E4,6.1892985E6,5.734765E2,1.1643582E4,8.3360785E2,1.1480917E2,1.0679528E3,5.005147E3,9.496697E2,1.4975723E3,2.3721815E2,1.8936807E3,6.2055054E2,1.09264656E2,1.6024728E2,2.8958292E2,5.8567188E3,1.7979541E2,1.6079086E3,1.5055539E6,5.787014E5,2.0871853E3,8.083144E4,3.2177325E2,5.8557635E6,3.335347E5,2.0547202E3,9.588861E3,7.959093E2,3.7698536E1,2.7722563E1,8.708661E1,9.7543036E2,9.252241E1,4.0157074E2,4.603576E3,7.284328E2,2.2123692E2,6.8774725E2,8.0982495E2,1.7796377E3,1.1404301E2,3.1962482E1,7.730218E1,2.3156492E1,2.6642642E2,5.7238936E3,1.3282497E2,1.0804289E2,7.175251E1,1.4088429E6,9.671105E4,1.5809466E5,4.2060672E5,1.8720883E3,2.1509705E2,2.9226974E2,8.053917E4,2.967945E2,2.4978773E1,1.4077464E5,5.714989E6,3.010344E2,3.3323366E5],"tree_param":{"num_deleted":"0","num_feature":"11","num_nodes":"89","size_leaf_vector":"1"}},{"base_weights":[9.873426E-1,-1.3556722E0,1.0039349E0,-2.4461606E0,-5.8361727E-1,7.276327E-1,1.1009778E0,-2.3365245E0,-4.443385E0,-2.2181617E-1,-1.3384194E0,9.7542906E-1,1.7422041E-1,1.101536E0,-4.8593348E-1,-3.1666796E0,-2.1173549E0,-5.8568406E0,2.3401254E-1,-2.5533442E0,-1.0753794E-1,-3.468548E-1,-2.1936266E0,-4.854558E-1,9.918004E-1,-5.9686236E-2,5.951527E-1,9.686315E-1,1.1027793E0,-3.7395144E0,-4.8543614E-1,2.889039E-1,-2.1941154E0,-4.8290443E-1,-6.9589157E0,-3.969671E0,-1.3999786E0,8.961609E-2,-1.0216166E0,5.0710905E-1,-1.9075035E0,2.4546333E-1,-2.3420844E0,1.0274651E0,5.1449484E-1,-7.110961E-1,3.6397812E-1,7.0748436E-1,-4.09307E0,1.0184289E0,-2.920081E0,1.063493E0,1.1035069E0,-1.0744518E0,-4.8488775E-1,-6.964252E-1,-5.133599E-1,-2.0813754E0,-7.46414E-1,-1.1434757E0,-5.288047E-1,-7.819983E-2,-5.605586E-1,-7.76168E-2,1.1615759E-1,-4.4164044E-1,-2.7540708E-3,-1.0560906E0,1.745661E-1,-5.873655E-1,7.675254E-3,2.2937466E-1,-1.2665436E0,-7.319663E-1,-4.9636447E-1,2.733144E-1,2.2998993E-1,-2.2017124E0,1.798192E-1,6.474455E-2,-2.7953497E-1,-5.4243598E-2,2.252986E-1,2.4986184E-1,3.5026323E-2,-1.9076962E0,-4.9540702E-1,-5.8553827E-1,2.5604314E-1,-1.1913418E0,-4.4922167E-1,2.6893246E-1,-8.438854E-1,2.7205575E-1,2.735408E-1],"categories":[],"categories_nodes":[],"categories_segments":[],"categories_sizes":[],"default_left":[0,0,0,0,0,0,0,0,0,0,0,0,0,0,0,0,0,0,0,0,0,0,0,0,0,0,0,0,0,0,0,0,0,0,0,0,0,0,0,0,0,0,0,0,0,0,0,0,0,0,0,0,0,0,0,0,0,0,0,0,0,0,0,0,0,0,0,0,0,0,0,0,0,0,0,0,0,0,0,0,0,0,0,0,0,0,0,0,0,0,0,0,0,0,0],"id":1,"left_children":[1,3,5,7,9,11,13,15,17,19,21,23,25,27,-1,29,31,33,-1,35,37,39,41,-1,43,45,47,49,51,53,-1,-1,55,-1,57,59,61,63,65,67,69,71,73,75,77,79,81,83,85,87,89,91,93,-1,-1,-1,-1,-1,-1,-1,-1,-1,-1,-1,-1,-1,-1,-1,-1,-1,-1,-1,-1,-1,-1,-1,-1,-1,-1,-1,-1,-1,-1,-1,-1,-1,-1,-1,-1,-1,-1,-1,-1,-1,-1],"loss_changes":[2.674435E5,4.072603E4,1.8316E5,4.3803203E3,7.734624E3,2.4348962E5,8.6545E3,3.4521484E3,7.9456855E3,5.1014673E3,7.7815176E3,5.8989E4,5.406826E4,8.34E2,0E0,2.7305703E3,3.7960078E3,3.540543E3,0E0,1.4558281E3,3.2897207E3,5.666471E3,1.7847461E3,0E0,2.0761125E4,9.7419E4,1.0330427E5,9.0755E3,1.42E2,2.8802305E3,0E0,0E0,1.0796875E3,0E0,3.6661367E3,4.696421E2,4.6357294E2,2.3015535E3,2.4992534E3,2.6095632E3,1.3609805E3,1.042149E3,9.5545703E2,8.5835E3,1.6958655E5,5.6689594E4,6.821081E4,3.27995E4,3.4706406E4,2.6035938E3,1.2317715E3,9.643195E3,4.05E1,0E0,0E0,0E0,0E0,0E0,0E0,0E0,0E0,0E0,0E0,0E0,0E0,0E0,0E0,0E0,0E0,0E0,0E0,0E0,0E0,0E0,0E0,0E0,0E0,0E0,0E0,0E0,0E0,0E0,0E0,0E0,0E0,0E0,0E0,0E0,0E0,0E0,0E0,0E0,0E0,0E0,0E0],"parents":[2147483647,0,0,1,1,2,2,3,3,4,4,5,5,6,6,7,7,8,8,9,9,10,10,11,11,12,12,13,13,15,15,16,16,17,17,19,19,20,20,21,21,22,22,24,24,25,25,26,26,27,27,28,28,29,29,32,32,34,34,35,35,36,36,37,37,38,38,39,39,40,40,41,41,42,42,43,43,44,44,45,45,46,46,47,47,48,48,49,49,50,50,51,51,52,52],"right_children":[2,4,6,8,10,12,14,16,18,20,22,24,26,28,-1,30,32,34,-1,36,38,40,42,-1,44,46,48,50,52,54,-1,-1,56,-1,58,60,62,64,66,68,70,72,74,76,78,80,82,84,86,88,90,92,94,-1,-1,-1,-1,-1,-1,-1,-1,-1,-1,-1,-1,-1,-1,-1,-1,-1,-1,-1,-1,-1,-1,-1,-1,-1,-1,-1,-1,-1,-1,-1,-1,-1,-1,-1,-1,-1,-1,-1,-1,-1,-1],"split_conditions":[-4.090741E-1,1.8419254E-1,9.0490925E-1,-4.1169655E-1,1.3081256E-1,-2.92982E-1,1.7302737E0,-3.1856167E-1,1.8707446E0,3.502584E-1,-7.585138E-1,-1.2097015E0,2.2530682E-1,1.0549015E0,-4.8593348E-1,1.0921081E0,-3.1848505E-1,-1.2097015E0,2.3401254E-1,-3.183364E-1,-3.1540924E-1,-2.8640345E-1,-1.7923712E0,-4.854558E-1,1.219344E0,6.0626924E-2,7.0841426E-1,1.9748454E-1,1.2339967E0,6.9479775E-1,-4.8543614E-1,2.889039E-1,-3.183343E-1,-4.8290443E-1,1.598768E-3,7.292989E-1,2.2150341E-2,1.2195944E0,-2.7935848E-1,3.3589807E-1,1.4449457E0,3.5650596E-1,6.5378064E-1,-3.1344518E-1,1.2195944E0,-1.0798398E0,3.5650596E-1,-5.6891006E-1,1.2195944E0,-1.2097015E0,9.7354114E-1,1.3815875E-1,4.1081457E0,-1.0744518E0,-4.8488775E-1,-6.964252E-1,-5.133599E-1,-2.0813754E0,-7.46414E-1,-1.1434757E0,-5.288047E-1,-7.819983E-2,-5.605586E-1,-7.76168E-2,1.1615759E-1,-4.4164044E-1,-2.7540708E-3,-1.0560906E0,1.745661E-1,-5.873655E-1,7.675254E-3,2.2937466E-1,-1.2665436E0,-7.319663E-1,-4.9636447E-1,2.733144E-1,2.2998993E-1,-2.2017124E0,1.798192E-1,6.474455E-2,-2.7953497E-1,-5.4243598E-2,2.252986E-1,2.4986184E-1,3.5026323E-2,-1.9076962E0,-4.9540702E-1,-5.8553827E-1,2.5604314E-1,-1.1913418E0,-4.4922167E-1,2.6893246E-1,-8.438854E-1,2.7205575E-1,2.735408E-1],"split_indices":[3,10,3,3,0,3,9,2,7,10,7,9,3,3,0,6,2,9,0,2,2,6,6,0,9,10,9,9,3,0,0,0,2,0,10,6,6,9,0,0,1,9,0,9,9,9,9,9,9,9,3,9,3,0,0,0,0,0,0,0,0,0,0,0,0,0,0,0,0,0,0,0,0,0,0,0,0,0,0,0,0,0,0,0,0,0,0,0,0,0,0,0,0,0,0],"split_type":[0,0,0,0,0,0,0,0,0,0,0,0,0,0,0,0,0,0,0,0,0,0,0,0,0,0,0,0,0,0,0,0,0,0,0,0,0,0,0,0,0,0,0,0,0,0,0,0,0,0,0,0,0,0,0,0,0,0,0,0,0,0,0,0,0,0,0,0,0,0,0,0,0,0,0,0,0,0,0,0,0,0,0,0,0,0,0,0,0,0,0,0,0,0,0],"sum_hessian":[6.879355E6,4.8373676E4,6.830981E6,2.005079E4,2.8322887E4,1.7755662E6,5.055415E6,1.9009451E4,1.0413384E3,1.9146598E4,9.17629E3,1.2264219E6,5.4914444E5,5.054495E6,9.1998285E2,3.9676445E3,1.5041807E4,8.249057E2,2.1643263E2,8.9361127E2,1.8252986E4,4.2500273E3,4.926262E3,6.7957915E3,1.219626E6,3.5299212E5,1.9615231E5,4.684968E4,5.0076455E6,2.687328E3,1.2803167E3,3.4310815E2,1.4698698E4,1.8218454E2,6.427211E2,3.9998727E2,4.93624E2,1.5015298E4,3.2376885E3,2.747378E3,1.5026495E3,2.8260153E2,4.6436606E3,1.1348294E6,8.479667E4,1.3910658E5,2.1388553E5,1.9156323E5,4.589082E3,4.6258055E4,5.91625E2,9.108571E4,4.9165595E6,2.0053202E3,6.820076E2,2.3577961E3,1.2340902E4,4.6861282E2,1.7410834E2,2.9378632E2,1.0620098E2,2.1984781E2,2.737762E2,7.283137E3,7.73216E3,1.8435974E3,1.394091E3,1.0883903E2,2.6385388E3,1.2108081E3,2.9184137E2,2.5147437E2,3.1127178E1,1.6333531E3,3.0103076E3,6.3335394E5,5.014754E5,1.8700385E3,8.292663E4,4.1870805E4,9.7235766E4,1.0349096E5,1.1039457E5,1.2482314E5,6.6740086E4,1.6793362E3,2.9097456E3,2.251495E2,4.6032906E4,2.1650844E2,3.7511658E2,9.060761E4,4.7810107E2,1.8546909E6,3.0618688E6],"tree_param":{"num_deleted":"0","num_feature":"11","num_nodes":"95","size_leaf_vector":"1"}},{"base_weights":[9.4331133E-1,6.1398137E-1,9.5636076E-1,-9.242753E-1,6.3297844E-1,9.595878E-1,4.46124E-1,-2.649003E-1,-2.1324391E0,7.270721E-1,4.5597786E-1,9.2750686E-1,1.0198704E0,-3.3961148E0,4.813844E-1,-2.0855238E0,9.390379E-2,-4.311814E-1,-2.270199E0,-3.494774E0,7.33206E-1,-7.2281057E-1,5.841705E-1,9.398062E-1,5.0240064E-1,1.0492493E0,8.3268577E-1,-2.9541528E0,-3.81221E0,5.245015E-1,-1.4173867E0,-2.3041945E0,-1.5092822E0,2.7458084E-1,-2.3532777E0,2.6026714E-1,-4.965287E-1,-4.926893E-1,-2.6164293E0,-4.8899657E-1,-6.2548637E0,7.3811644E-1,-3.1354375E0,-3.279048E-1,-2.7673721E0,5.964088E-1,-2.9454615E0,9.837058E-1,8.793444E-1,3.267416E-1,6.748466E-1,1.0294513E0,2.677847E-1,8.3722955E-1,-2.1110644E0,-3.401984E0,-2.345043E0,-4.4241676E0,-8.5405123E-1,-2.9268308E0,5.480212E-1,-2.9538162E0,-1.398994E-1,-4.8366165E-1,-6.8383753E-1,2.5652415E-1,-5.230015E-1,-6.355465E-1,9.1712445E-2,-4.7866875E-1,-6.994987E-1,-7.6124024E-1,-5.970144E-1,-1.7106308E0,-1.0213536E0,1.9956933E-1,1.2413525E-1,-4.9069878E-1,-1.3739216E0,1.4407259E-4,-3.9270714E-1,-4.8449084E-1,-9.989801E-1,1.4973657E-1,-8.416781E-1,-4.7533423E-1,-1.1273962E0,2.1145828E-1,2.510824E-1,1.5386166E-1,2.466447E-1,8.776213E-2,-4.3524495E-1,1.7052163E-1,-4.4461772E-1,2.6794285E-1,2.5194785E-1,2.9970156E-2,2.0884657E-1,-3.40561E-1,-7.9271036E-1,-7.6231617E-1,-9.682134E-1,-6.32966E-1,-3.7009457E-1,-1.2787775E0,-8.181416E-1,-5.4146427E-1,-9.361678E-1,1.3887042E-1,-8.5379505E-1,-4.0150785E-1,-9.086007E-1,-6.8691874E-1,1.1528603E-1],"categories":[],"categories_nodes":[],"categories_segments":[],"categories_sizes":[],"default_left":[0,0,0,0,0,0,0,0,0,0,0,0,0,0,0,0,0,0,0,0,0,0,0,0,0,0,0,0,0,0,0,0,0,0,0,0,0,0,0,0,0,0,0,0,0,0,0,0,0,0,0,0,0,0,0,0,0,0,0,0,0,0,0,0,0,0,0,0,0,0,0,0,0,0,0,0,0,0,0,0,0,0,0,0,0,0,0,0,0,0,0,0,0,0,0,0,0,0,0,0,0,0,0,0,0,0,0,0,0,0,0,0,0,0,0],"id":2,"left_children":[1,3,5,7,9,11,13,15,17,19,21,23,25,27,29,31,33,35,37,39,41,43,45,47,49,51,53,55,57,59,61,63,65,67,69,-1,-1,-1,71,-1,73,75,77,79,81,83,85,87,89,91,93,95,-1,97,99,101,103,105,-1,107,109,111,113,-1,-1,-1,-1,-1,-1,-1,-1,-1,-1,-1,-1,-1,-1,-1,-1,-1,-1,-1,-1,-1,-1,-1,-1,-1,-1,-1,-1,-1,-1,-1,-1,-1,-1,-1,-1,-1,-1,-1,-1,-1,-1,-1,-1,-1,-1,-1,-1,-1,-1,-1,-1],"loss_changes":[2.41415E4,6.2575703E3,8.8965E3,2.0805803E3,3.5221875E3,1.0384E4,4.6029053E3,1.1049642E3,2.1516016E2,3.5786172E3,1.1094047E4,1.832375E4,1.0255375E4,4.5557373E1,2.7560654E3,3.1611206E1,6.257248E2,1.6649374E2,7.7041016E1,8.2777295E2,2.6218594E3,5.8132783E3,2.8619453E3,9.03925E3,2.9849453E3,1.06025E3,3.3860469E3,3.410388E1,1.9004395E1,2.6729277E3,1.4668289E3,2.6712158E1,1.2464772E2,3.6121E2,1.383728E1,0E0,0E0,0E0,2.7853516E1,0E0,7.067822E1,2.233086E3,4.7647852E2,2.4976387E3,1.1903105E3,2.348291E3,3.691532E2,7.955125E3,4.3401375E4,2.8555938E3,1.7808867E3,5.94E2,0E0,1.26975E3,3.0892432E2,2.1566162E0,8.613556E0,2.7924805E1,0E0,1.3278601E2,1.7476348E3,3.18771E2,6.5513806E2,0E0,0E0,0E0,0E0,0E0,0E0,0E0,0E0,0E0,0E0,0E0,0E0,0E0,0E0,0E0,0E0,0E0,0E0,0E0,0E0,0E0,0E0,0E0,0E0,0E0,0E0,0E0,0E0,0E0,0E0,0E0,0E0,0E0,0E0,0E0,0E0,0E0,0E0,0E0,0E0,0E0,0E0,0E0,0E0,0E0,0E0,0E0,0E0,0E0,0E0,0E0,0E0],"parents":[2147483647,0,0,1,1,2,2,3,3,4,4,5,5,6,6,7,7,8,8,9,9,10,10,11,11,12,12,13,13,14,14,15,15,16,16,17,17,18,18,19,19,20,20,21,21,22,22,23,23,24,24,25,25,26,26,27,27,28,28,29,29,30,30,31,31,32,32,33,33,34,34,38,38,40,40,41,41,42,42,43,43,44,44,45,45,46,46,47,47,48,48,49,49,50,50,51,51,53,53,54,54,55,55,56,56,57,57,59,59,60,60,61,61,62,62],"right_children":[2,4,6,8,10,12,14,16,18,20,22,24,26,28,30,32,34,36,38,40,42,44,46,48,50,52,54,56,58,60,62,64,66,68,70,-1,-1,-1,72,-1,74,76,78,80,82,84,86,88,90,92,94,96,-1,98,100,102,104,106,-1,108,110,112,114,-1,-1,-1,-1,-1,-1,-1,-1,-1,-1,-1,-1,-1,-1,-1,-1,-1,-1,-1,-1,-1,-1,-1,-1,-1,-1,-1,-1,-1,-1,-1,-1,-1,-1,-1,-1,-1,-1,-1,-1,-1,-1,-1,-1,-1,-1,-1,-1,-1,-1,-1,-1],"split_conditions":[-1.2097015E0,-1.4061047E0,1.7302737E0,5.9600025E-1,1.0612113E0,1.0022281E0,-1.5821146E0,-4.359977E-1,-1.6097902E0,-1.6636765E0,-6.5920174E-1,9.6387917E-1,1.4748089E0,-1.4614299E-2,1.4197959E0,-6.2871474E-1,1.1699775E0,6.2527424E-1,-1.3353046E0,-1.3353046E0,1.6810201E0,7.6841E-1,1.6059525E0,-3.1344518E-1,5.378514E-1,1.2195944E0,1.6205895E0,-8.9222425E-1,-3.2451198E-1,-1.6137129E0,5.4884607E-1,-1.3353046E0,-9.042912E-1,-1.3873324E0,-1.3353046E0,2.6026714E-1,-4.965287E-1,-4.926893E-1,-2.2943464E-1,-4.8899657E-1,-1.6922272E0,1.6609056E-1,-1.3353046E0,2.739865E-1,-1.3353046E0,1.6339259E0,-1.3353046E0,-1.0419815E0,3.5650596E-1,1.6075473E0,1.8379118E0,1.219344E0,2.677847E-1,-1.6873702E0,-2.7386597E-1,-7.197665E-2,1.0058112E0,9.4870985E-1,-8.5405123E-1,-2.1153224E-1,1.6059525E0,-8.676987E-1,3.910824E-1,-4.8366165E-1,-6.8383753E-1,2.5652415E-1,-5.230015E-1,-6.355465E-1,9.1712445E-2,-4.7866875E-1,-6.994987E-1,-7.6124024E-1,-5.970144E-1,-1.7106308E0,-1.0213536E0,1.9956933E-1,1.2413525E-1,-4.9069878E-1,-1.3739216E0,1.4407259E-4,-3.9270714E-1,-4.8449084E-1,-9.989801E-1,1.4973657E-1,-8.416781E-1,-4.7533423E-1,-1.1273962E0,2.1145828E-1,2.510824E-1,1.5386166E-1,2.466447E-1,8.776213E-2,-4.3524495E-1,1.7052163E-1,-4.4461772E-1,2.6794285E-1,2.5194785E-1,2.9970156E-2,2.0884657E-1,-3.40561E-1,-7.9271036E-1,-7.6231617E-1,-9.682134E-1,-6.32966E-1,-3.7009457E-1,-1.2787775E0,-8.181416E-1,-5.4146427E-1,-9.361678E-1,1.3887042E-1,-8.5379505E-1,-4.0150785E-1,-9.086007E-1,-6.8691874E-1,1.1528603E-1],"split_indices":[9,10,9,1,4,9,1,8,5,8,10,9,9,10,8,8,8,1,9,9,5,5,1,9,6,9,1,4,7,8,7,9,1,7,9,0,0,0,7,0,8,10,9,1,9,8,9,9,9,5,7,9,0,1,10,8,8,8,0,10,1,1,1,0,0,0,0,0,0,0,0,0,0,0,0,0,0,0,0,0,0,0,0,0,0,0,0,0,0,0,0,0,0,0,0,0,0,0,0,0,0,0,0,0,0,0,0,0,0,0,0,0,0,0,0],"split_type":[0,0,0,0,0,0,0,0,0,0,0,0,0,0,0,0,0,0,0,0,0,0,0,0,0,0,0,0,0,0,0,0,0,0,0,0,0,0,0,0,0,0,0,0,0,0,0,0,0,0,0,0,0,0,0,0,0,0,0,0,0,0,0,0,0,0,0,0,0,0,0,0,0,0,0,0,0,0,0,0,0,0,0,0,0,0,0,0,0,0,0,0,0,0,0,0,0,0,0,0,0,0,0,0,0,0,0,0,0,0,0,0,0,0,0],"sum_hessian":[5.6176985E6,2.1411448E5,5.403584E6,2.611427E3,2.1150305E5,5.369622E6,3.3962004E4,1.690195E3,9.2123206E2,1.380908E5,7.341225E4,3.5045808E6,1.865041E6,3.0796994E2,3.3654035E4,2.7746835E2,1.4127267E3,6.931844E1,8.519136E2,1.99514E2,1.3789128E5,7.2000405E3,6.621221E4,3.4060345E6,9.854633E4,1.612026E6,2.5301511E5,1.5327075E2,1.5469917E2,3.29075E4,7.465369E2,1.9896645E2,7.85019E1,1.3164221E3,9.6304535E1,3.5880787E1,3.3437656E1,4.7585364E2,3.7605997E2,1.2982632E2,6.968768E1,1.3771728E5,1.7399698E2,6.035456E3,1.1645841E3,6.598426E4,2.2795625E2,1.9732788E6,1.4327558E6,4.8819805E4,4.972652E4,1.0104601E6,6.015658E5,2.5262589E5,3.89221E2,8.568677E1,6.758399E1,5.3091938E1,1.0160724E2,2.219003E2,3.2685598E4,3.3832385E2,4.0821307E2,1.1613326E2,8.283318E1,1.4932539E1,6.3569363E1,4.2217567E1,1.2742046E3,5.3878006E1,4.2426533E1,1.10683334E2,2.6537662E2,5.1455826E1,1.8231853E1,1.0672045E5,3.0996832E4,1.19097725E2,5.4899254E1,4.787839E3,1.2476172E3,7.132201E2,4.51364E2,6.58387E4,1.4555008E2,1.4074457E2,8.7211685E1,3.8533888E5,1.5879399E6,4.496175E5,9.831382E5,4.817335E4,6.464542E2,4.943775E4,2.8876923E2,1.7138614E5,8.3907394E5,2.4525586E3,2.5017333E5,2.3419109E2,1.550299E2,5.7022743E1,2.866402E1,5.2384846E1,1.5199144E1,2.966822E1,2.3423716E1,1.2117413E2,1.00726166E2,3.2577684E4,1.0791366E2,1.1983372E2,2.1849011E2,7.560608E1,3.32607E2],"tree_param":{"num_deleted":"0","num_feature":"11","num_nodes":"115","size_leaf_vector":"1"}},{"base_weights":[8.9261687E-1,4.985235E-1,1.054868E0,7.688573E-1,-5.4057226E-2,8.707807E-1,1.0567347E0,-1.0921882E0,8.855752E-1,-3.0356476E-1,3.915583E-1,-6.987439E-1,8.715864E-1,1.0083022E0,1.0576792E0,-1.2522678E0,-3.4536245E-1,5.05773E-1,9.143429E-1,1.4887223E-1,-8.11532E-1,2.43389E-1,6.1752075E-1,7.9141325E-1,9.0338004E-1,9.706815E-1,1.0205293E0,1.0514377E0,1.0615007E0,-1.1548618E0,-2.0221045E0,-3.147246E-2,-2.153736E0,2.4648075E-1,6.7701113E-1,9.2644155E-1,4.8691413E-1,-2.0130017E-1,2.958926E-1,-3.1992027E-1,-1.6741879E0,4.3906203E-1,-1.9963753E-1,5.5782294E-1,8.4808284E-1,8.0036885E-1,-8.88165E-1,9.10149E-1,1.0748288E-1,9.7940123E-1,5.2852166E-1,1.029633E0,9.843659E-1,1.0568148E0,1.026556E0,2.6276523E-1,1.0227388E0,-1.9220847E-1,-3.468601E-1,3.0080685E-2,-5.221004E-1,-2.2675054E-1,9.584768E-2,-9.533755E-1,-1.643281E-1,8.785353E-2,-4.323204E-1,1.6961038E-1,-1.5011482E0,2.2942412E-1,-1.1347339E0,1.2652616E-1,-3.4380573E-1,-3.6721587E-2,-1.7095536E0,2.2012556E-1,-1.7159862E-2,-4.7751404E-2,-3.4311894E-1,-6.603931E-1,-3.031345E-1,-1.842573E0,1.1051599E-1,-2.0831093E-1,1.4040653E-2,1.407384E-1,-1.2456217E0,2.1134074E-1,-1.6208985E0,1.8462127E-1,2.4541774E-1,2.6522422E-1,2.1852872E-1,8.673289E-2,-1.8296549E0,2.2165559E-1,2.4674386E-1,1.6837096E-1,-1.0196475E0,2.548865E-1,1.466652E-1,-1.0586803E0,2.4453294E-1,2.573143E-1,2.6160938E-1,-1.2007644E0,2.539843E-1,-1.6119736E0,2.533115E-1],"categories":[],"categories_nodes":[],"categories_segments":[],"categories_sizes":[],"default_left":[0,0,0,0,0,0,0,0,0,0,0,0,0,0,0,0,0,0,0,0,0,0,0,0,0,0,0,0,0,0,0,0,0,0,0,0,0,0,0,0,0,0,0,0,0,0,0,0,0,0,0,0,0,0,0,0,0,0,0,0,0,0,0,0,0,0,0,0,0,0,0,0,0,0,0,0,0,0,0,0,0,0,0,0,0,0,0,0,0,0,0,0,0,0,0,0,0,0,0,0,0,0,0,0,0,0,0,0,0],"id":3,"left_children":[1,3,5,7,9,11,13,15,17,19,21,-1,23,25,27,29,31,33,35,37,39,41,43,45,47,49,51,53,55,57,59,61,63,65,67,69,71,73,75,77,79,81,83,85,87,89,-1,91,93,95,97,99,101,103,105,-1,107,-1,-1,-1,-1,-1,-1,-1,-1,-1,-1,-1,-1,-1,-1,-1,-1,-1,-1,-1,-1,-1,-1,-1,-1,-1,-1,-1,-1,-1,-1,-1,-1,-1,-1,-1,-1,-1,-1,-1,-1,-1,-1,-1,-1,-1,-1,-1,-1,-1,-1,-1,-1],"loss_changes":[2.950165E5,2.0100238E5,1.12225E3,1.9626488E5,4.914695E4,1.0015625E2,1.47E2,6.3743867E3,9.2890625E3,6.5124688E4,5.3119883E3,0E0,8.291016E1,2.7492188E1,7.45E1,3.2903594E3,5.343314E3,2.6579473E3,4.0866875E3,7.7161E3,5.6612367E4,8.307287E3,8.643965E2,3.6876123E2,1.26421875E2,5.8114258E1,1.43671875E1,1.6025E2,5.325E1,3.641539E3,9.351738E2,2.9751326E3,3.523229E3,5.160432E3,2.1025176E3,4.20375E3,1.0035713E3,1.5716034E4,2.2900668E4,1.1513782E4,2.1644438E4,4.036088E3,4.8360493E3,3.102668E3,6.031279E2,9.568799E1,0E0,1.0000586E2,3.6597714E2,2.1541016E1,2.1237273E2,1.1265625E1,2.0958887E2,1.075E1,2.058125E2,0E0,3.4298438E2,0E0,0E0,0E0,0E0,0E0,0E0,0E0,0E0,0E0,0E0,0E0,0E0,0E0,0E0,0E0,0E0,0E0,0E0,0E0,0E0,0E0,0E0,0E0,0E0,0E0,0E0,0E0,0E0,0E0,0E0,0E0,0E0,0E0,0E0,0E0,0E0,0E0,0E0,0E0,0E0,0E0,0E0,0E0,0E0,0E0,0E0,0E0,0E0,0E0,0E0,0E0,0E0],"parents":[2147483647,0,0,1,1,2,2,3,3,4,4,5,5,6,6,7,7,8,8,9,9,10,10,12,12,13,13,14,14,15,15,16,16,17,17,18,18,19,19,20,20,21,21,22,22,23,23,24,24,25,25,26,26,27,27,28,28,29,29,30,30,31,31,32,32,33,33,34,34,35,35,36,36,37,37,38,38,39,39,40,40,41,41,42,42,43,43,44,44,45,45,47,47,48,48,49,49,50,50,51,51,52,52,53,53,54,54,56,56],"right_children":[2,4,6,8,10,12,14,16,18,20,22,-1,24,26,28,30,32,34,36,38,40,42,44,46,48,50,52,54,56,58,60,62,64,66,68,70,72,74,76,78,80,82,84,86,88,90,-1,92,94,96,98,100,102,104,106,-1,108,-1,-1,-1,-1,-1,-1,-1,-1,-1,-1,-1,-1,-1,-1,-1,-1,-1,-1,-1,-1,-1,-1,-1,-1,-1,-1,-1,-1,-1,-1,-1,-1,-1,-1,-1,-1,-1,-1,-1,-1,-1,-1,-1,-1,-1,-1,-1,-1,-1,-1,-1,-1],"split_conditions":[9.0490925E-1,-2.812129E-1,1.0549015E0,-4.064516E-1,2.0196047E-1,-1.7461357E0,1.2339967E0,-4.1035333E-1,-3.967488E-1,-1.2028302E-1,5.4607916E-1,-6.987439E-1,-3.1833285E-1,-3.1833285E-1,4.1081457E0,1.228582E0,-3.1544384E-1,-8.9222425E-1,-2.9835486E-1,-3.1833285E-1,3.539252E-1,-6.3311476E-1,-3.136017E-1,-3.183354E-1,1.820064E0,-3.1833792E-1,8.168995E-1,1.8788136E0,7.0205684E0,-3.1836268E-1,-1.7923712E0,1.7070405E-1,-3.1358325E-1,-3.140282E-1,3.4192464E0,3.470001E0,3.1227767E0,-3.1833524E-1,-3.1594878E-1,1.0434431E0,-3.1833285E-1,-1.6553345E0,-3.1833285E-1,-3.1364137E-1,1.6176826E0,1.3561928E0,-8.88165E-1,-3.169152E-1,-3.143731E-1,-8.3570707E-1,9.578926E-1,1.6810201E0,-1.7457199E0,1.2984143E0,-3.1862226E-1,2.6276523E-1,-1.7457199E0,-1.9220847E-1,-3.468601E-1,3.0080685E-2,-5.221004E-1,-2.2675054E-1,9.584768E-2,-9.533755E-1,-1.643281E-1,8.785353E-2,-4.323204E-1,1.6961038E-1,-1.5011482E0,2.2942412E-1,-1.1347339E0,1.2652616E-1,-3.4380573E-1,-3.6721587E-2,-1.7095536E0,2.2012556E-1,-1.7159862E-2,-4.7751404E-2,-3.4311894E-1,-6.603931E-1,-3.031345E-1,-1.842573E0,1.1051599E-1,-2.0831093E-1,1.4040653E-2,1.407384E-1,-1.2456217E0,2.1134074E-1,-1.6208985E0,1.8462127E-1,2.4541774E-1,2.6522422E-1,2.1852872E-1,8.673289E-2,-1.8296549E0,2.2165559E-1,2.4674386E-1,1.6837096E-1,-1.0196475E0,2.548865E-1,1.466652E-1,-1.0586803E0,2.4453294E-1,2.573143E-1,2.6160938E-1,-1.2007644E0,2.539843E-1,-1.6119736E0,2.533115E-1],"split_indices":[3,3,3,3,3,7,3,3,3,3,3,0,2,2,3,5,2,4,3,2,4,4,2,2,7,2,7,3,3,2,6,8,2,2,2,2,2,2,2,0,2,7,2,2,0,5,0,2,2,8,5,5,0,3,2,0,0,0,0,0,0,0,0,0,0,0,0,0,0,0,0,0,0,0,0,0,0,0,0,0,0,0,0,0,0,0,0,0,0,0,0,0,0,0,0,0,0,0,0,0,0,0,0,0,0,0,0,0,0],"split_type":[0,0,0,0,0,0,0,0,0,0,0,0,0,0,0,0,0,0,0,0,0,0,0,0,0,0,0,0,0,0,0,0,0,0,0,0,0,0,0,0,0,0,0,0,0,0,0,0,0,0,0,0,0,0,0,0,0,0,0,0,0,0,0,0,0,0,0,0,0,0,0,0,0,0,0,0,0,0,0,0,0,0,0,0,0,0,0,0,0,0,0,0,0,0,0,0,0,0,0,0,0,0,0,0,0,0,0,0,0],"sum_hessian":[4.613818E6,1.345565E6,3.268253E6,9.035362E5,4.420288E5,3.2813137E4,3.2354398E6,5.3321773E4,8.502144E5,2.8336716E5,1.5866166E5,6.388164E0,3.2806746E4,6.1912016E4,3.1735278E6,4.3909285E4,9.412488E3,5.9865477E4,7.9034894E5,1.4987605E5,1.3349111E5,9.582734E4,6.283432E4,9.323039E3,2.3483707E4,1.5206033E4,4.670598E4,1.2052769E6,1.9682509E6,3.8979746E4,4.92954E3,8.0212163E3,1.3912721E3,2.381172E4,3.6053754E4,7.6859225E5,2.1756686E4,4.4318375E4,1.0555767E5,8.503346E4,4.845764E4,6.646953E4,2.9357812E4,4.9913883E4,1.29204375E4,9.304839E3,1.8200197E1,2.3285525E4,1.9818207E2,1.4910765E4,2.952681E2,3.7290855E4,9.415127E3,9.9106175E5,2.142151E5,1.9327635E6,3.548745E4,1.5420854E4,2.355889E4,1.9532747E2,4.7342124E3,2.5763972E3,5.444819E3,6.48927E2,7.4234503E2,2.258202E4,1.2297018E3,3.6008594E4,4.5161194E1,7.6845494E5,1.372866E2,2.147636E4,2.8032425E2,4.397299E4,3.4538614E2,4.0194996E4,6.536267E4,7.5997914E4,9.03555E3,1.5056746E4,3.3400895E4,6.381483E1,6.640571E4,8.373705E3,2.0984107E4,4.981589E4,9.7992546E1,1.2910421E4,1.0016587E1,7.2623286E3,2.0425105E3,3.2955847E3,1.9989941E4,1.9288564E2,5.2964234E0,2.6620742E3,1.224869E4,2.867428E2,8.5253E0,3.7227312E4,6.3543137E1,6.592819E0,9.408534E3,4.1418938E4,9.496428E5,4.9818997E0,2.1421011E5,5.052025E0,3.5482395E4],"tree_param":{"num_deleted":"0","num_feature":"11","num_nodes":"109","size_leaf_vector":"1"}},{"base_weights":[8.4739697E-1,4.383239E-1,1.0376081E0,7.1236503E-1,-2.4861293E-2,1.0385684E0,-1.787869E0,-6.9060296E-1,8.401709E-1,2.8687084E-1,-3.4472746E-1,8.093992E-1,1.0410047E0,-3.473411E-1,-1.8141983E0,-1.3213218E0,-2.255945E-1,-1.8747385E0,8.656654E-1,-3.4783733E-1,7.947529E-1,-4.7586503E0,-5.7357416E-2,8.860673E-1,-2.1601155E0,9.774967E-1,1.04227E0,-4.573487E-1,-1.5183938E0,-7.161569E-2,-1.641294E0,3.6555144E-1,-5.741801E-1,-1.8109293E0,-4.1661053E0,1.0441248E0,6.9136727E-1,-9.7678643E-1,5.577881E-1,-2.0611145E0,8.821259E-1,-1.5045716E0,-7.1088066E0,3.720699E-2,-2.11047E0,-1.2331011E0,9.118067E-1,-2.6272407E0,7.70309E-1,1.0160835E0,-2.9508262E0,1.0436078E0,1.019948E0,-3.4556133E-1,-4.3299976E-1,-3.632586E-1,2.5647658E-1,-4.368396E-1,1.6530834E-1,-4.0627804E-1,1.4482395E-1,-1.7183296E-2,-3.5765788E-1,-3.675036E-1,-4.5257342E-1,-5.3128797E-1,-2.694069E0,2.591175E-1,2.3066919E-1,2.5877062E-2,2.0135257E-1,3.014391E-2,-1.2223679E0,2.8637165E-1,-7.1049824E-2,-5.49048E-1,-2.5703257E-4,1.5319124E-1,2.3586564E-1,-1.7486222E-2,-9.1889054E-1,-1.8737494E0,-9.210109E-1,-1.6732305E-1,7.247626E-2,-1.2739937E0,-2.2626203E-1,-6.0318834E-1,2.15722E-1,1.8094073E-1,2.5138107E-1,-8.9417386E-1,-4.7419763E-1,3.023717E-1,-1.075888E0,-5.3554666E-1,2.5472054E-1,-4.1927835E-1,-1.324321E0,2.5684184E-1,2.5904152E-1,-7.3856413E-1,2.562537E-1],"categories":[],"categories_nodes":[],"categories_segments":[],"categories_sizes":[],"default_left":[0,0,0,0,0,0,0,0,0,0,0,0,0,0,0,0,0,0,0,0,0,0,0,0,0,0,0,0,0,0,0,0,0,0,0,0,0,0,0,0,0,0,0,0,0,0,0,0,0,0,0,0,0,0,0,0,0,0,0,0,0,0,0,0,0,0,0,0,0,0,0,0,0,0,0,0,0,0,0,0,0,0,0,0,0,0,0,0,0,0,0,0,0,0,0,0,0,0,0,0,0,0,0],"id":4,"left_children":[1,3,5,7,9,11,13,15,17,19,21,23,25,-1,27,29,31,33,35,37,39,41,43,45,47,49,51,-1,53,55,57,59,61,63,65,67,69,71,73,75,77,79,81,83,85,87,89,91,93,95,97,99,101,-1,-1,-1,-1,-1,-1,-1,-1,-1,-1,-1,-1,-1,-1,-1,-1,-1,-1,-1,-1,-1,-1,-1,-1,-1,-1,-1,-1,-1,-1,-1,-1,-1,-1,-1,-1,-1,-1,-1,-1,-1,-1,-1,-1,-1,-1,-1,-1,-1,-1],"loss_changes":[2.9492825E5,1.5270544E5,7.02125E3,1.3553094E5,4.4591367E4,1.4435E3,6.3376465E0,1.8508504E4,4.7950156E4,7.3007414E4,2.7996725E5,6.197119E3,2.045E2,0E0,5.581299E0,1.070907E4,7.485928E3,9.3478906E2,2.1346875E4,5.734187E4,3.13945E4,1.0316797E5,4.0233918E4,1.4480957E3,9.399365E2,7.583426E3,7.375E1,0E0,1.3131714E-1,8.455579E3,6.1371797E3,5.950779E3,1.0053186E4,3.5171875E1,2.3362102E3,1.255625E2,2.497411E4,2.5877284E5,2.0914445E4,1.2186357E3,2.2888125E3,1.7932473E4,1.23233125E4,3.6158465E4,3.3160938E4,8.108958E2,4.927207E2,4.077207E2,2.2509859E2,2.1459727E3,1.4595703E3,4.375E1,9.065391E3,0E0,0E0,0E0,0E0,0E0,0E0,0E0,0E0,0E0,0E0,0E0,0E0,0E0,0E0,0E0,0E0,0E0,0E0,0E0,0E0,0E0,0E0,0E0,0E0,0E0,0E0,0E0,0E0,0E0,0E0,0E0,0E0,0E0,0E0,0E0,0E0,0E0,0E0,0E0,0E0,0E0,0E0,0E0,0E0,0E0,0E0,0E0,0E0,0E0,0E0],"parents":[2147483647,0,0,1,1,2,2,3,3,4,4,5,5,6,6,7,7,8,8,9,9,10,10,11,11,12,12,14,14,15,15,16,16,17,17,18,18,19,19,20,20,21,21,22,22,23,23,24,24,25,25,26,26,28,28,29,29,30,30,31,31,32,32,33,33,34,34,35,35,36,36,37,37,38,38,39,39,40,40,41,41,42,42,43,43,44,44,45,45,46,46,47,47,48,48,49,49,50,50,51,51,52,52],"right_children":[2,4,6,8,10,12,14,16,18,20,22,24,26,-1,28,30,32,34,36,38,40,42,44,46,48,50,52,-1,54,56,58,60,62,64,66,68,70,72,74,76,78,80,82,84,86,88,90,92,94,96,98,100,102,-1,-1,-1,-1,-1,-1,-1,-1,-1,-1,-1,-1,-1,-1,-1,-1,-1,-1,-1,-1,-1,-1,-1,-1,-1,-1,-1,-1,-1,-1,-1,-1,-1,-1,-1,-1,-1,-1,-1,-1,-1,-1,-1,-1,-1,-1,-1,-1,-1,-1],"split_conditions":[9.0490925E-1,-2.812129E-1,1.7302737E0,-4.038931E-1,-5.6891006E-1,1.0549015E0,-1.6137129E0,1.8419254E-1,-1.2097015E0,7.038944E-2,-4.7525004E-1,1.9748454E-1,1.2339967E0,-3.473411E-1,1.4197959E0,-7.0601356E-1,4.529494E-1,-2.8703347E-1,-3.1344518E-1,-1.0419815E0,-1.3353046E0,1.640502E-2,1.219344E0,-1.2097015E0,3.348067E0,1.3815875E-1,1.4748089E0,-4.573487E-1,5.4884607E-1,-1.2097015E0,1.8707446E0,-1.2097015E0,-1.6656145E-1,-1.4061047E0,-1.3353046E0,-3.080132E-1,-3.8572773E-1,-1.0798398E0,-8.243749E-1,1.612513E0,1.6051272E-1,-1.4279786E-1,7.91267E-1,-3.0945968E-2,1.2195944E0,2.1072512E0,-4.7525004E-1,9.7354114E-1,-1.3816377E0,-1.2097015E0,1.1436793E0,4.1081457E0,3.0761468E0,-3.4556133E-1,-4.3299976E-1,-3.632586E-1,2.5647658E-1,-4.368396E-1,1.6530834E-1,-4.0627804E-1,1.4482395E-1,-1.7183296E-2,-3.5765788E-1,-3.675036E-1,-4.5257342E-1,-5.3128797E-1,-2.694069E0,2.591175E-1,2.3066919E-1,2.5877062E-2,2.0135257E-1,3.014391E-2,-1.2223679E0,2.8637165E-1,-7.1049824E-2,-5.49048E-1,-2.5703257E-4,1.5319124E-1,2.3586564E-1,-1.7486222E-2,-9.1889054E-1,-1.8737494E0,-9.210109E-1,-1.6732305E-1,7.247626E-2,-1.2739937E0,-2.2626203E-1,-6.0318834E-1,2.15722E-1,1.8094073E-1,2.5138107E-1,-8.9417386E-1,-4.7419763E-1,3.023717E-1,-1.075888E0,-5.3554666E-1,2.5472054E-1,-4.1927835E-1,-1.324321E0,2.5684184E-1,2.5904152E-1,-7.3856413E-1,2.562537E-1],"split_indices":[3,3,9,3,9,3,8,10,9,3,9,9,3,0,8,9,9,3,9,9,9,3,9,9,2,9,9,0,7,9,7,9,0,10,9,3,3,9,9,8,3,3,3,9,9,10,9,3,5,9,3,3,3,0,0,0,0,0,0,0,0,0,0,0,0,0,0,0,0,0,0,0,0,0,0,0,0,0,0,0,0,0,0,0,0,0,0,0,0,0,0,0,0,0,0,0,0,0,0,0,0,0,0],"split_type":[0,0,0,0,0,0,0,0,0,0,0,0,0,0,0,0,0,0,0,0,0,0,0,0,0,0,0,0,0,0,0,0,0,0,0,0,0,0,0,0,0,0,0,0,0,0,0,0,0,0,0,0,0,0,0,0,0,0,0,0,0,0,0,0,0,0,0,0,0,0,0,0,0,0,0,0,0,0,0,0,0,0,0,0,0,0,0,0,0,0,0,0,0,0,0,0,0,0,0,0,0,0,0],"sum_hessian":[3.790357E6,1.20305E6,2.587307E6,7.5585294E5,4.4719706E5,2.5864288E6,8.783504E2,6.3106586E4,6.927464E5,2.2647819E5,2.2071886E5,2.7210691E4,2.559218E6,5.988086E1,8.1846954E2,2.6780605E4,3.632598E4,6.4440596E3,6.863023E5,1.00669836E5,1.2580836E5,1.3490654E4,2.0722822E5,2.6526521E4,6.841704E2,5.000798E4,2.50921E6,7.280482E2,9.042132E1,5.4593613E3,2.1321244E4,1.3474803E4,2.285118E4,6.2712114E3,1.7284799E2,3.391006E5,3.472017E5,5.941001E4,4.1259824E4,3.7340754E3,1.2207428E5,5.6580425E3,7.832612E3,1.9810469E5,9.123529E3,3.1776163E2,2.620876E4,5.9019385E2,9.397655E1,4.9522277E4,4.857015E2,2.3672888E6,1.4192139E5,6.3952316E1,2.6469E1,2.415269E3,3.0440925E3,2.0230045E4,1.0911985E3,1.3293658E3,1.21454375E4,1.4472148E4,8.37903E3,3.4301956E2,5.928192E3,1.339587E2,3.8889305E1,3.2923997E5,9.860631E3,6.0002793E4,2.871989E5,4.6519656E4,1.2890356E4,2.4130014E4,1.7129809E4,3.467425E3,2.6665033E2,2.606237E4,9.6011914E4,3.4321948E3,2.2258477E3,6.88441E3,9.482017E2,5.227041E4,1.4583427E5,2.5750046E3,6.548525E3,2.0197017E2,1.1579146E2,9.610679E3,1.659808E4,2.4522557E2,3.4496826E2,8.7051865E1,6.924689E0,2.1027872E2,4.9312E4,3.2008945E2,1.6561206E2,9.455429E5,1.4217459E6,5.6184454E2,1.4135955E5],"tree_param":{"num_deleted":"0","num_feature":"11","num_nodes":"103","size_leaf_vector":"1"}},{"base_weights":[8.096525E-1,4.0669164E-1,1.0257609E0,6.734096E-1,5.866294E-2,1.0267512E0,-1.5077015E0,-5.3152615E-1,8.0548173E-1,-1.784644E0,9.986023E-2,8.861836E-1,1.0288554E0,-3.161343E-1,-1.5218573E0,2.1830387E-2,-7.853457E-1,-1.5137935E0,8.275501E-1,-1.8419201E0,-6.4754176E-1,6.748398E-1,-4.9508803E-2,9.36438E-1,-1.4577312E0,1.0194458E0,1.0348157E0,-1.539719E0,-3.3444703E-1,-1.3756188E0,3.023967E-1,-1.0277401E0,8.367108E-2,-1.5352837E0,-1.4854574E0,1.0326269E0,6.3903916E-1,-2.0043542E0,-1.7457057E0,-1.7638611E0,6.0523796E-1,4.360106E-1,1.0895365E0,-1.5640184E0,8.397863E-2,-9.328865E-1,9.5942074E-1,-8.301701E-1,-3.808309E-1,1.0310653E0,4.1374463E-1,1.0357937E0,9.815617E-1,-2.926729E-1,-3.8295543E-1,-3.3077586E-1,-3.564351E-1,2.5643468E-1,-1.4885201E-2,-4.9359813E-1,-2.2844256E-1,-3.350187E-1,7.747816E-2,-3.8043985E-1,-2.911992E-1,-3.6891583E-1,-3.0867454E-1,2.5746575E-1,2.4564011E-1,2.0355524E-2,1.9354185E-1,-4.0877998E-1,-5.04638E-1,-3.2953194E-1,-4.4225293E-1,-5.240325E-1,-3.6020607E-1,2.4664026E-1,-6.656549E-1,-1.7117163E0,1.8070252E-1,2.7147436E-1,2.5994775E-1,1.8816563E-1,-5.37074E-1,2.735701E-1,-2.056784E-2,-4.8473346E-1,2.62283E-1,2.0968041E-1,2.5283167E-1,-3.678408E-1,2.2785203E-1,2.5598168E-1,2.291071E-1,-1.6708884E0,2.2888455E-1,2.563391E-1,2.5507152E-1,-5.065264E0,2.4500841E-1],"categories":[],"categories_nodes":[],"categories_segments":[],"categories_sizes":[],"default_left":[0,0,0,0,0,0,0,0,0,0,0,0,0,0,0,0,0,0,0,0,0,0,0,0,0,0,0,0,0,0,0,0,0,0,0,0,0,0,0,0,0,0,0,0,0,0,0,0,0,0,0,0,0,0,0,0,0,0,0,0,0,0,0,0,0,0,0,0,0,0,0,0,0,0,0,0,0,0,0,0,0,0,0,0,0,0,0,0,0,0,0,0,0,0,0,0,0,0,0,0,0],"id":5,"left_children":[1,3,5,7,9,11,13,15,17,19,21,23,25,-1,27,29,31,33,35,37,39,41,43,45,47,49,51,53,-1,55,57,59,61,63,65,67,69,71,73,75,77,79,81,83,85,87,89,91,-1,93,95,97,99,-1,-1,-1,-1,-1,-1,-1,-1,-1,-1,-1,-1,-1,-1,-1,-1,-1,-1,-1,-1,-1,-1,-1,-1,-1,-1,-1,-1,-1,-1,-1,-1,-1,-1,-1,-1,-1,-1,-1,-1,-1,-1,-1,-1,-1,-1,-1,-1],"loss_changes":[2.72069E5,1.01238375E5,5.10375E3,9.8259375E4,3.5933832E4,6.005E2,6.4086914E-1,8.566617E3,2.8481875E4,6.7253125E2,3.975116E4,3.5337832E3,1.1125E2,0E0,1.7492676E-1,7.520607E3,8.807869E3,9.121094E-1,2.1308594E4,1.5040625E2,6.9697516E2,9.452484E3,7.42772E4,1.262252E3,3.1037231E1,5.46625E3,6.2875E1,1.517334E-1,0E0,6.1254883E0,4.252513E3,3.2968945E3,3.0106133E3,9.609375E-1,1.3330078E0,8.4375E1,2.2920672E4,4.245215E1,1.05375E2,2.5651306E1,3.0643866E2,1.3118898E5,9.496094E0,4.19994E4,5.766453E4,7.3275696E2,2.0223828E2,8.736783E1,0E0,2.9675E2,5.3618844E4,1.5E0,4.2319883E3,0E0,0E0,0E0,0E0,0E0,0E0,0E0,0E0,0E0,0E0,0E0,0E0,0E0,0E0,0E0,0E0,0E0,0E0,0E0,0E0,0E0,0E0,0E0,0E0,0E0,0E0,0E0,0E0,0E0,0E0,0E0,0E0,0E0,0E0,0E0,0E0,0E0,0E0,0E0,0E0,0E0,0E0,0E0,0E0,0E0,0E0,0E0,0E0],"parents":[2147483647,0,0,1,1,2,2,3,3,4,4,5,5,6,6,7,7,8,8,9,9,10,10,11,11,12,12,14,14,15,15,16,16,17,17,18,18,19,19,20,20,21,21,22,22,23,23,24,24,25,25,26,26,27,27,29,29,30,30,31,31,32,32,33,33,34,34,35,35,36,36,37,37,38,38,39,39,40,40,41,41,42,42,43,43,44,44,45,45,46,46,47,47,49,49,50,50,51,51,52,52],"right_children":[2,4,6,8,10,12,14,16,18,20,22,24,26,-1,28,30,32,34,36,38,40,42,44,46,48,50,52,54,-1,56,58,60,62,64,66,68,70,72,74,76,78,80,82,84,86,88,90,92,-1,94,96,98,100,-1,-1,-1,-1,-1,-1,-1,-1,-1,-1,-1,-1,-1,-1,-1,-1,-1,-1,-1,-1,-1,-1,-1,-1,-1,-1,-1,-1,-1,-1,-1,-1,-1,-1,-1,-1,-1,-1,-1,-1,-1,-1,-1,-1,-1,-1,-1,-1],"split_conditions":[9.7354114E-1,-2.9835486E-1,1.7302737E0,-4.038931E-1,-1.3353046E0,1.1436793E0,-1.6137129E0,4.529494E-1,-1.2097015E0,1.612513E0,-1.0798398E0,1.9748454E-1,4.1081457E0,-3.161343E-1,1.4197959E0,-1.2097015E0,1.7302737E0,-8.9222425E-1,-3.1344518E-1,-6.642653E-2,3.296298E-1,-1.2097015E0,-1.0419815E0,-1.2097015E0,-1.3816377E0,7.0841426E-1,7.0205684E0,-1.5821146E0,-3.3444703E-1,-4.196919E-1,-3.1344518E-1,-1.3150403E0,-5.749589E-1,1.6810201E0,1.6059525E0,-8.243749E-1,-3.8572773E-1,-2.812129E-1,-1.4495466E0,-3.1881163E-1,-2.8341186E-1,-6.642653E-2,2.0196047E-1,-2.00684E-1,-8.243749E-1,1.612513E0,-2.026744E-1,-1.3932387E0,-3.808309E-1,1.9748454E-1,3.0761468E0,1.4748089E0,7.23387E-1,-2.926729E-1,-3.8295543E-1,-3.3077586E-1,-3.564351E-1,2.5643468E-1,-1.4885201E-2,-4.9359813E-1,-2.2844256E-1,-3.350187E-1,7.747816E-2,-3.8043985E-1,-2.911992E-1,-3.6891583E-1,-3.0867454E-1,2.5746575E-1,2.4564011E-1,2.0355524E-2,1.9354185E-1,-4.0877998E-1,-5.04638E-1,-3.2953194E-1,-4.4225293E-1,-5.240325E-1,-3.6020607E-1,2.4664026E-1,-6.656549E-1,-1.7117163E0,1.8070252E-1,2.7147436E-1,2.5994775E-1,1.8816563E-1,-5.37074E-1,2.735701E-1,-2.056784E-2,-4.8473346E-1,2.62283E-1,2.0968041E-1,2.5283167E-1,-3.678408E-1,2.2785203E-1,2.5598168E-1,2.291071E-1,-1.6708884E0,2.2888455E-1,2.563391E-1,2.5507152E-1,-5.065264E0,2.4500841E-1],"split_indices":[3,3,9,3,9,3,8,9,9,8,9,9,3,0,8,9,9,4,9,3,3,9,9,9,5,9,3,1,0,3,9,0,1,5,1,9,3,3,8,1,5,3,3,3,9,8,9,5,0,9,3,9,9,0,0,0,0,0,0,0,0,0,0,0,0,0,0,0,0,0,0,0,0,0,0,0,0,0,0,0,0,0,0,0,0,0,0,0,0,0,0,0,0,0,0,0,0,0,0,0,0],"split_type":[0,0,0,0,0,0,0,0,0,0,0,0,0,0,0,0,0,0,0,0,0,0,0,0,0,0,0,0,0,0,0,0,0,0,0,0,0,0,0,0,0,0,0,0,0,0,0,0,0,0,0,0,0,0,0,0,0,0,0,0,0,0,0,0,0,0,0,0,0,0,0,0,0,0,0,0,0,0,0,0,0,0,0,0,0,0,0,0,0,0,0,0,0,0,0,0,0,0,0,0,0],"sum_hessian":[3.1242432E6,1.0906305E6,2.0336128E6,6.1744206E5,4.731885E5,2.0328188E6,7.9404333E2,6.0991797E4,5.5645025E5,1.0343484E4,4.62845E5,2.9987588E4,2.0028311E6,5.1382282E1,7.426611E2,1.9179383E4,4.1812414E4,5.244195E3,5.5120606E5,9.846875E3,4.966092E2,9.544326E4,3.6740175E5,2.9358727E4,6.288614E2,7.767384E5,1.2260928E6,6.6470624E2,7.795479E1,3.2061646E3,1.5973219E4,3.2693145E4,9.119269E3,2.9521094E3,2.2920854E3,2.64001E5,2.8720506E5,3.6555547E3,6.1913203E3,2.6239124E2,2.3421797E2,6.0565098E4,3.487816E4,2.9758602E4,3.3764316E5,3.5609048E2,2.9002635E4,7.376645E1,5.55095E2,7.6211744E5,1.4620942E4,1.2039634E6,2.2129447E4,1.8479813E1,6.4622644E2,2.0303198E3,1.1758448E3,5.279684E3,1.0693534E4,3.1787341E3,2.951441E4,1.2545881E3,7.86468E3,2.9273955E3,2.471368E1,2.231768E3,6.0317486E1,2.189047E5,4.5096293E4,5.8804387E4,2.2840067E5,3.4032047E2,3.3152344E3,5.7468756E2,5.6166323E3,1.1919906E2,1.4319218E2,2.0995885E2,2.425912E1,2.3304434E3,5.8234652E4,2.8955986E4,5.922173E3,6.1620093E3,2.3596592E4,4.745612E4,2.9018703E5,2.3504298E2,1.2104749E2,1.0419275E4,1.858336E4,5.3756172E1,2.0010275E1,7.3598144E5,2.613597E4,9.730138E2,1.3647928E4,1.1001685E6,1.03794805E5,8.189752E0,2.2121258E4],"tree_param":{"num_deleted":"0","num_feature":"11","num_nodes":"101","size_leaf_vector":"1"}},{"base_weights":[7.660587E-1,3.5016578E-1,1.0114872E0,6.1745024E-1,2.3118693E-2,7.199353E-1,1.0169615E0,-4.543097E-1,7.433968E-1,-2.0320237E-1,2.0468618E-1,6.646307E-1,8.572205E-1,9.570477E-1,1.0189985E0,-1.0500499E0,-8.750633E-2,5.069122E-1,8.24271E-1,1.3238657E-1,-9.56038E-1,5.178084E-1,-7.284167E-2,-1.4566777E0,6.665081E-1,-6.212264E-1,8.6245495E-1,9.137268E-1,9.731666E-1,1.0080657E0,1.0255023E0,-1.3159577E0,-3.6589906E-1,4.9532466E-2,-1.0492476E0,3.513735E-1,6.324716E-1,8.4345114E-1,5.154285E-1,-1.6625603E-1,4.4109324E-1,-1.3529551E0,2.3788689E-1,1.1401391E-2,5.928868E-1,-2.1871644E-1,5.088212E-1,6.142084E-1,8.761329E-1,-6.4922947E-1,8.6616236E-1,9.1539335E-1,3.466159E-1,9.739228E-1,7.0734423E-1,1.0182989E0,9.6362597E-1,2.5398773E-1,9.601376E-1,-1.0933027E-1,-3.470141E-1,4.4311877E-2,-3.6220768E-1,2.452738E-2,-5.620345E-1,-3.3526534E-1,5.5935257E-3,-1.1941942E0,9.016047E-2,1.5933551E-1,-1.1001438E0,2.0937604E-1,-5.5517334E-2,-1.0007265E0,1.3481022E-1,-2.5049317E-1,-2.5050031E-2,1.10660404E-1,-9.9123937E-1,-2.5569814E-1,-4.6804914E-1,-4.09881E-2,1.5608242E-1,-1.362059E0,2.1591669E-2,1.4779891E-1,-1.1749741E0,3.68989E-2,-1.0762665E-1,5.9926763E-2,1.7171566E-1,1.5334556E-1,-1.7840704E0,-7.584154E-1,2.1828061E-1,2.454269E-1,2.0289935E-1,2.3000681E-1,2.1410696E-1,-1.9579338E-1,2.2106597E-1,2.3401052E-1,2.4208553E-1,2.4493344E-1,-3.1172377E-1,2.5067225E-1,2.5289425E-1,1.20171785E-1,2.3891024E-1,2.3815225E-1,-1.3249425E0],"categories":[],"categories_nodes":[],"categories_segments":[],"categories_sizes":[],"default_left":[0,0,0,0,0,0,0,0,0,0,0,0,0,0,0,0,0,0,0,0,0,0,0,0,0,0,0,0,0,0,0,0,0,0,0,0,0,0,0,0,0,0,0,0,0,0,0,0,0,0,0,0,0,0,0,0,0,0,0,0,0,0,0,0,0,0,0,0,0,0,0,0,0,0,0,0,0,0,0,0,0,0,0,0,0,0,0,0,0,0,0,0,0,0,0,0,0,0,0,0,0,0,0,0,0,0,0,0,0,0,0],"id":6,"left_children":[1,3,5,7,9,11,13,15,17,19,21,23,25,27,29,31,33,35,37,39,41,43,45,-1,47,-1,49,51,53,55,57,59,61,63,65,67,69,71,73,75,77,79,81,83,85,87,89,91,93,-1,95,97,99,101,103,105,107,-1,109,-1,-1,-1,-1,-1,-1,-1,-1,-1,-1,-1,-1,-1,-1,-1,-1,-1,-1,-1,-1,-1,-1,-1,-1,-1,-1,-1,-1,-1,-1,-1,-1,-1,-1,-1,-1,-1,-1,-1,-1,-1,-1,-1,-1,-1,-1,-1,-1,-1,-1,-1,-1],"loss_changes":[2.6336938E5,8.370595E4,2.589125E3,7.112789E4,1.76963E4,2.2651758E2,1.935E2,1.2108263E4,9.017656E3,4.8431188E4,2.076462E4,2.662754E2,1.5354541E2,3.5691406E1,1.08625E2,3.840914E3,4.5201416E3,2.3464785E3,2.0809062E3,1.2224222E4,2.8009684E4,4.2686777E3,1.074844E4,0E0,2.3319922E2,0E0,1.1309961E2,1.3125977E1,6.9882812E0,2.60375E2,7.64375E1,1.1532344E3,3.5388376E3,3.4581677E3,1.403168E3,3.641745E3,3.931504E3,1.0381562E3,2.7698267E3,3.7071064E3,1.8127422E3,7.6340234E3,2.3395789E3,6.0700815E3,2.3958906E3,8.060972E3,1.2546309E3,7.632832E2,1.0757324E2,0E0,4.876172E1,9.376953E0,2.765396E1,4.0664062E0,6.351829E1,8.3125E0,1.1022656E2,0E0,2.9514062E2,0E0,0E0,0E0,0E0,0E0,0E0,0E0,0E0,0E0,0E0,0E0,0E0,0E0,0E0,0E0,0E0,0E0,0E0,0E0,0E0,0E0,0E0,0E0,0E0,0E0,0E0,0E0,0E0,0E0,0E0,0E0,0E0,0E0,0E0,0E0,0E0,0E0,0E0,0E0,0E0,0E0,0E0,0E0,0E0,0E0,0E0,0E0,0E0,0E0,0E0,0E0,0E0],"parents":[2147483647,0,0,1,1,2,2,3,3,4,4,5,5,6,6,7,7,8,8,9,9,10,10,11,11,12,12,13,13,14,14,15,15,16,16,17,17,18,18,19,19,20,20,21,21,22,22,24,24,26,26,27,27,28,28,29,29,30,30,31,31,32,32,33,33,34,34,35,35,36,36,37,37,38,38,39,39,40,40,41,41,42,42,43,43,44,44,45,45,46,46,47,47,48,48,50,50,51,51,52,52,53,53,54,54,55,55,56,56,58,58],"right_children":[2,4,6,8,10,12,14,16,18,20,22,24,26,28,30,32,34,36,38,40,42,44,46,-1,48,-1,50,52,54,56,58,60,62,64,66,68,70,72,74,76,78,80,82,84,86,88,90,92,94,-1,96,98,100,102,104,106,108,-1,110,-1,-1,-1,-1,-1,-1,-1,-1,-1,-1,-1,-1,-1,-1,-1,-1,-1,-1,-1,-1,-1,-1,-1,-1,-1,-1,-1,-1,-1,-1,-1,-1,-1,-1,-1,-1,-1,-1,-1,-1,-1,-1,-1,-1,-1,-1,-1,-1,-1,-1,-1,-1],"split_conditions":[8.4567994E-1,-2.92982E-1,1.0549015E0,-4.0517238E-1,-4.5623757E-2,-8.9222425E-1,1.2984143E0,1.5538679E-1,-3.8572773E-1,6.40174E-1,-1.2028302E-1,-1.7867371E0,-1.6839261E0,1.1436793E0,4.1081457E0,-4.1035333E-1,7.2556055E-1,-8.9222425E-1,-3.080132E-1,9.1880865E-2,2.6515552E-1,1.8419254E-1,4.7840676E-1,-1.4566777E0,3.502584E-1,-6.212264E-1,-1.663928E0,1.6810201E0,1.6910273E0,1.8788136E0,7.0205684E0,-1.4179592E0,-2.13806E-1,1.5070055E0,1.2985758E0,-1.7751921E0,1.6205895E0,1.6655521E0,-1.3651785E0,-1.3651785E0,1.6655521E0,1.7152755E-1,5.089169E-1,-1.4352711E0,1.6205895E0,2.6085043E-1,6.374817E-1,1.6655521E0,-1.7457199E0,-6.4922947E-1,-1.3873118E0,1.0973835E-1,-9.042912E-1,-1.1957726E0,-1.4586003E0,-7.880584E-1,-1.7457199E0,2.5398773E-1,2.043973E0,-1.0933027E-1,-3.470141E-1,4.4311877E-2,-3.6220768E-1,2.452738E-2,-5.620345E-1,-3.3526534E-1,5.5935257E-3,-1.1941942E0,9.016047E-2,1.5933551E-1,-1.1001438E0,2.0937604E-1,-5.5517334E-2,-1.0007265E0,1.3481022E-1,-2.5049317E-1,-2.5050031E-2,1.10660404E-1,-9.9123937E-1,-2.5569814E-1,-4.6804914E-1,-4.09881E-2,1.5608242E-1,-1.362059E0,2.1591669E-2,1.4779891E-1,-1.1749741E0,3.68989E-2,-1.0762665E-1,5.9926763E-2,1.7171566E-1,1.5334556E-1,-1.7840704E0,-7.584154E-1,2.1828061E-1,2.454269E-1,2.0289935E-1,2.3000681E-1,2.1410696E-1,-1.9579338E-1,2.2106597E-1,2.3401052E-1,2.4208553E-1,2.4493344E-1,-3.1172377E-1,2.5067225E-1,2.5289425E-1,1.20171785E-1,2.3891024E-1,2.3815225E-1,-1.3249425E0],"split_indices":[3,3,3,3,10,4,3,10,3,4,3,0,10,3,3,3,0,4,3,3,3,10,3,0,10,0,5,5,8,3,3,8,5,5,1,1,1,5,10,10,5,1,3,8,1,10,3,5,0,0,1,10,1,6,0,4,0,0,10,0,0,0,0,0,0,0,0,0,0,0,0,0,0,0,0,0,0,0,0,0,0,0,0,0,0,0,0,0,0,0,0,0,0,0,0,0,0,0,0,0,0,0,0,0,0,0,0,0,0,0,0],"split_type":[0,0,0,0,0,0,0,0,0,0,0,0,0,0,0,0,0,0,0,0,0,0,0,0,0,0,0,0,0,0,0,0,0,0,0,0,0,0,0,0,0,0,0,0,0,0,0,0,0,0,0,0,0,0,0,0,0,0,0,0,0,0,0,0,0,0,0,0,0,0,0,0,0,0,0,0,0,0,0,0,0,0,0,0,0,0,0,0,0,0,0,0,0,0,0,0,0,0,0,0,0,0,0,0,0,0,0,0,0,0,0],"sum_hessian":[2.5802345E6,9.575733E5,1.6226611E6,5.269303E5,4.3064303E5,2.9908525E4,1.5927526E6,5.540986E4,4.7152044E5,1.9169638E5,2.3894666E5,2.1324082E4,8.584443E3,5.2386895E4,1.5403658E6,2.111472E4,3.429514E4,1.2016185E5,3.513586E5,1.3259208E5,5.9104285E4,1.122731E5,1.2667356E5,5.2090883E0,2.1318873E4,1.2576225E1,8.571867E3,1.422192E4,3.8164977E4,5.746126E5,9.657531E5,1.5204349E4,5.9103726E3,3.0018713E4,4.2764263E3,5.3674973E4,6.648688E4,3.3081234E5,2.0546248E4,6.7394836E4,6.5197246E4,4.4357594E4,1.4746693E4,1.4496274E4,9.777683E4,1.0127541E5,2.5398156E4,1.7065182E4,4.253691E3,8.353467E0,8.563514E3,1.4179637E4,4.2282726E1,3.805405E4,1.10923485E2,4.6704412E5,1.0756848E5,9.479438E5,1.7809283E4,1.3744946E3,1.38298545E4,3.9506968E3,1.9596759E3,2.9391486E4,6.272275E2,3.326397E3,9.500295E2,1.3444562E2,5.3540527E4,6.633585E4,1.5102974E2,3.2990484E5,9.075072E2,1.3131557E2,2.0414932E4,4.8052725E3,6.2589562E4,6.5106746E4,9.050009E1,2.7859387E4,1.6498205E4,7.276336E3,7.4703574E3,1.9569234E2,1.4300582E4,9.769395E4,8.287761E1,3.7505016E4,6.377039E4,1.0416981E4,1.4981175E4,1.7053723E4,1.1459052E1,5.961413E0,4.2477295E3,2.28361E3,6.2799033E3,1.0990317E4,3.1893193E3,1.35808325E1,2.8701893E1,5.49967E3,3.255438E4,9.741833E1,1.350516E1,2.0862578E5,2.5841834E5,4.8364435E2,1.0708483E5,1.7802865E4,6.4183626E0],"tree_param":{"num_deleted":"0","num_feature":"11","num_nodes":"111","size_leaf_vector":"1"}},{"base_weights":[7.158057E-1,3.5112932E-1,7.3556185E-1,3.9666712E-1,-4.4352615E-1,6.8633425E-1,8.4581584E-1,-1.682305E0,4.107136E-1,1.821635E-1,-1.6301382E0,8.2144177E-1,5.338585E-1,9.386815E-1,4.4203576E-1,-2.4806414E0,2.3761174E-1,-3.6496764E-1,4.3330768E-1,-2.4611378E0,4.244702E-1,-2.0245426E0,-3.2414213E-1,6.605264E-1,8.7060416E-1,3.228924E-3,6.598726E-1,8.880856E-1,2.5371864E-1,4.5772797E-1,-7.763889E-1,-1.4894547E0,-3.8155353E0,5.6622106E-1,-1.6596383E0,1.1623472E-1,-1.3175502E0,-3.265913E-1,4.5518732E-1,-1.5516406E0,-3.5077136E0,5.491422E-1,-2.3342357E0,-1.1856194E0,-3.1864042E0,2.114892E-1,-2.218046E0,1.0623348E0,5.622441E-1,1.0563633E0,8.3696127E-1,4.6571732E-1,-1.1497425E0,7.322434E-1,-3.456792E-2,1.0300546E0,8.584722E-1,-4.157017E-1,4.7605017E-1,7.634315E-1,-1.3008242E0,-3.8399127E-1,-2.9119173E-1,-6.5131325E-1,-1.154087E0,1.851327E-1,1.5833512E-2,-2.990129E-1,-5.0838864E-1,2.3302379E-1,-1.3220458E-1,-2.2111751E-1,-4.9416724E-1,-4.126689E-2,-5.4131216E-1,1.5286504E-1,9.174356E-2,-3.659452E-1,-4.629537E-1,-8.087192E-1,-1.213213E0,1.5943754E-1,-6.532982E-1,-4.1021144E-1,-8.0323786E-1,-7.663884E-2,-3.8185722E-1,-5.5362666E-1,-8.955867E-1,1.4266996E-1,-4.1283438E-1,-3.7626848E-1,-7.293051E-1,2.6052204E-1,2.6547602E-1,8.528424E-2,1.747517E-1,2.606952E-1,2.7581796E-1,9.347689E-2,2.18309E-1,-2.0794752E-3,2.6290742E-1,-1.3158932E-1,-1.1969889E0,1.056414E-1,2.0424719E-1,-8.277555E-4,-3.993309E-1,2.5412428E-1,2.600191E-1,1.9219701E-1,2.2475675E-1,-5.4786604E-2,-6.52805E-1,-1.3851814E-1,1.21326834E-1,1.0421925E-1,2.3365062E-1,-2.517309E-1,-6.999437E-1],"categories":[],"categories_nodes":[],"categories_segments":[],"categories_sizes":[],"default_left":[0,0,0,0,0,0,0,0,0,0,0,0,0,0,0,0,0,0,0,0,0,0,0,0,0,0,0,0,0,0,0,0,0,0,0,0,0,0,0,0,0,0,0,0,0,0,0,0,0,0,0,0,0,0,0,0,0,0,0,0,0,0,0,0,0,0,0,0,0,0,0,0,0,0,0,0,0,0,0,0,0,0,0,0,0,0,0,0,0,0,0,0,0,0,0,0,0,0,0,0,0,0,0,0,0,0,0,0,0,0,0,0,0,0,0,0,0,0,0,0,0],"id":7,"left_children":[1,3,5,7,9,11,13,15,17,19,21,23,25,27,29,31,33,35,37,39,41,43,45,47,49,51,53,55,-1,57,59,61,63,65,67,69,71,73,75,77,79,81,83,85,87,89,91,93,95,97,99,101,103,105,107,109,111,113,115,117,119,-1,-1,-1,-1,-1,-1,-1,-1,-1,-1,-1,-1,-1,-1,-1,-1,-1,-1,-1,-1,-1,-1,-1,-1,-1,-1,-1,-1,-1,-1,-1,-1,-1,-1,-1,-1,-1,-1,-1,-1,-1,-1,-1,-1,-1,-1,-1,-1,-1,-1,-1,-1,-1,-1,-1,-1,-1,-1,-1,-1],"loss_changes":[1.55395E4,4.0113633E3,1.11045E4,3.0622344E3,4.4611367E3,2.9139312E4,2.3681406E4,1.0793074E3,1.8252324E3,2.521265E3,1.0678623E3,5.932375E3,4.443589E4,2.25825E3,2.2583008E3,6.521426E2,1.303752E2,1.3514629E3,1.6825566E3,3.0920166E2,1.2412568E3,1.5490156E3,4.8978134E2,6.9304453E3,3.5891875E3,6.800467E4,2.6988844E4,1.3638438E3,0E0,1.8660664E3,1.2139001E3,3.80188E0,1.9998657E2,1.6209816E1,3.0269394E0,1.0533168E3,2.8333276E2,8.4214636E2,1.349625E3,1.3642883E0,3.4901733E1,1.0514205E3,9.092047E1,2.900907E2,2.6656396E2,2.5982687E2,4.967743E1,2.3085938E0,4.421742E3,1.1828125E1,1.0167969E4,2.576666E4,8.3208766E4,1.38645E4,2.4997693E3,2.1875E0,1.0962344E3,1.0340939E3,1.7046348E3,2.3282532E1,4.8234827E2,0E0,0E0,0E0,0E0,0E0,0E0,0E0,0E0,0E0,0E0,0E0,0E0,0E0,0E0,0E0,0E0,0E0,0E0,0E0,0E0,0E0,0E0,0E0,0E0,0E0,0E0,0E0,0E0,0E0,0E0,0E0,0E0,0E0,0E0,0E0,0E0,0E0,0E0,0E0,0E0,0E0,0E0,0E0,0E0,0E0,0E0,0E0,0E0,0E0,0E0,0E0,0E0,0E0,0E0,0E0,0E0,0E0,0E0,0E0,0E0],"parents":[2147483647,0,0,1,1,2,2,3,3,4,4,5,5,6,6,7,7,8,8,9,9,10,10,11,11,12,12,13,13,14,14,15,15,16,16,17,17,18,18,19,19,20,20,21,21,22,22,23,23,24,24,25,25,26,26,27,27,29,29,30,30,31,31,32,32,33,33,34,34,35,35,36,36,37,37,38,38,39,39,40,40,41,41,42,42,43,43,44,44,45,45,46,46,47,47,48,48,49,49,50,50,51,51,52,52,53,53,54,54,55,55,56,56,57,57,58,58,59,59,60,60],"right_children":[2,4,6,8,10,12,14,16,18,20,22,24,26,28,30,32,34,36,38,40,42,44,46,48,50,52,54,56,-1,58,60,62,64,66,68,70,72,74,76,78,80,82,84,86,88,90,92,94,96,98,100,102,104,106,108,110,112,114,116,118,120,-1,-1,-1,-1,-1,-1,-1,-1,-1,-1,-1,-1,-1,-1,-1,-1,-1,-1,-1,-1,-1,-1,-1,-1,-1,-1,-1,-1,-1,-1,-1,-1,-1,-1,-1,-1,-1,-1,-1,-1,-1,-1,-1,-1,-1,-1,-1,-1,-1,-1,-1,-1,-1,-1,-1,-1,-1,-1,-1,-1],"split_conditions":[-1.2097015E0,1.3100543E0,1.0022281E0,-1.7662286E0,-6.9937336E-1,-3.1344518E-1,1.4748089E0,1.612513E0,-1.3288171E0,-7.300687E-1,1.1428099E0,-1.0419815E0,-3.0945968E-2,1.2195944E0,1.583997E0,-1.3353046E0,-3.5540408E-1,-2.9338968E-1,-1.545529E0,-1.3353046E0,7.220061E-1,-1.3353046E0,-6.483898E-2,-1.0798398E0,-8.243749E-1,-5.7980325E-2,9.6387917E-1,1.219344E0,2.5371864E-1,-1.6068667E0,-1.7354656E0,1.3341396E0,-6.750353E-2,-1.3353046E0,-1.3353046E0,-8.823357E-1,-1.3353046E0,1.255042E0,-8.011629E-1,-8.655641E-1,6.608252E-1,1.0016145E0,-1.3353046E0,1.3510714E0,-7.116188E-1,-2.9887983E-1,-1.3353046E0,-3.270423E-1,-8.9222425E-1,1.597174E0,-7.0601356E-1,-2.026744E-1,1.6609056E-1,3.5650596E-1,2.1072512E0,1.7129431E0,-8.9222425E-1,1.7302737E0,-1.632143E0,1.7302737E0,5.6717736E-1,-3.8399127E-1,-2.9119173E-1,-6.5131325E-1,-1.154087E0,1.851327E-1,1.5833512E-2,-2.990129E-1,-5.0838864E-1,2.3302379E-1,-1.3220458E-1,-2.2111751E-1,-4.9416724E-1,-4.126689E-2,-5.4131216E-1,1.5286504E-1,9.174356E-2,-3.659452E-1,-4.629537E-1,-8.087192E-1,-1.213213E0,1.5943754E-1,-6.532982E-1,-4.1021144E-1,-8.0323786E-1,-7.663884E-2,-3.8185722E-1,-5.5362666E-1,-8.955867E-1,1.4266996E-1,-4.1283438E-1,-3.7626848E-1,-7.293051E-1,2.6052204E-1,2.6547602E-1,8.528424E-2,1.747517E-1,2.606952E-1,2.7581796E-1,9.347689E-2,2.18309E-1,-2.0794752E-3,2.6290742E-1,-1.3158932E-1,-1.1969889E0,1.056414E-1,2.0424719E-1,-8.277555E-4,-3.993309E-1,2.5412428E-1,2.600191E-1,1.9219701E-1,2.2475675E-1,-5.4786604E-2,-6.52805E-1,-1.3851814E-1,1.21326834E-1,1.0421925E-1,2.3365062E-1,-2.517309E-1,-6.999437E-1],"split_indices":[9,0,9,0,1,9,9,8,10,7,7,9,9,9,1,9,1,7,8,9,5,9,8,9,9,9,9,9,0,1,0,8,10,9,9,1,9,10,7,7,10,10,9,0,10,5,9,4,4,0,9,9,10,9,10,10,4,9,8,9,7,0,0,0,0,0,0,0,0,0,0,0,0,0,0,0,0,0,0,0,0,0,0,0,0,0,0,0,0,0,0,0,0,0,0,0,0,0,0,0,0,0,0,0,0,0,0,0,0,0,0,0,0,0,0,0,0,0,0,0,0],"split_type":[0,0,0,0,0,0,0,0,0,0,0,0,0,0,0,0,0,0,0,0,0,0,0,0,0,0,0,0,0,0,0,0,0,0,0,0,0,0,0,0,0,0,0,0,0,0,0,0,0,0,0,0,0,0,0,0,0,0,0,0,0,0,0,0,0,0,0,0,0,0,0,0,0,0,0,0,0,0,0,0,0,0,0,0,0,0,0,0,0,0,0,0,0,0,0,0,0,0,0,0,0,0,0,0,0,0,0,0,0,0,0,0,0,0,0,0,0,0,0,0,0],"sum_hessian":[2.1569125E6,1.108455E5,2.046067E6,1.04838234E5,6.0072627E3,1.4145069E6,6.3156006E5,7.027845E2,1.0413545E5,3.9338342E3,2.0734282E3,7.499647E5,6.645422E5,5.1346628E5,1.1809379E5,4.9617416E2,2.0661032E2,2.9469805E3,1.0118848E5,3.295581E2,3.6042761E3,1.5920784E3,4.813499E2,1.7551E5,5.744547E5,1.2753006E5,5.370121E5,3.2460997E5,1.8885631E5,1.16592805E5,1.5009847E3,2.8595923E2,2.1021494E2,1.767059E2,2.9904427E1,1.9585073E3,9.88473E2,2.8315696E3,9.835691E4,1.776548E2,1.519033E2,3.4492002E3,1.5507603E2,9.2569794E2,6.6638043E2,3.7592084E2,1.05429085E2,3.4490867E4,1.4101912E5,8.808162E4,4.8637306E5,9.102004E4,3.651003E4,4.8632944E5,5.0682688E4,5.6018562E4,2.685914E5,2.3951045E3,1.141977E5,3.812175E2,1.1197672E3,2.3477838E2,5.118084E1,8.960739E1,1.20607544E2,1.2931125E2,4.7394646E1,1.5868784E1,1.4035642E1,8.62928E2,1.0955795E3,6.104662E2,3.7800677E2,2.6087646E3,2.2280511E2,3.3563664E4,6.479324E4,1.4947507E2,2.8179724E1,1.325987E2,1.930462E1,3.349847E3,9.9353226E1,9.071392E1,6.4362114E1,2.6914722E2,6.565507E2,2.1112332E2,4.5525708E2,3.1535788E2,6.056295E1,5.55153E1,4.9913788E1,1.8714613E4,1.5776254E4,5.6218715E4,8.4800414E4,8.446963E4,3.6119856E3,4.3892688E4,4.4248038E5,5.0733965E4,4.028607E4,3.127374E4,5.2362905E3,1.13971664E5,3.7235778E5,4.9701375E4,9.813128E2,4.9543293E4,6.4752705E3,1.0222783E5,1.6636358E5,2.203681E3,1.9142361E2,1.5656537E3,1.1263205E5,1.3309108E2,2.4812643E2,9.4613904E2,1.7362819E2],"tree_param":{"num_deleted":"0","num_feature":"11","num_nodes":"121","size_leaf_vector":"1"}},{"base_weights":[6.510595E-1,5.093373E-1,7.112626E-1,5.148887E-1,-3.8062608E0,9.296399E-1,6.084311E-1,5.4497075E-1,-5.4528806E-3,-8.828295E-1,-1.0146985E0,1.0259374E0,8.47152E-1,4.5726824E-1,6.5892804E-1,5.4721427E-1,-3.629063E0,1.5576234E-1,-2.8121777E0,9.8684835E-1,1.0301003E0,7.20827E-1,1.0179523E0,5.3501475E-1,-2.1273464E-2,1.0137727E0,6.2777895E-1,3.1040132E-1,5.741318E-1,-1.1270409E0,-8.451112E-1,-2.0601778E0,2.253343E-1,-3.6299372E0,-8.195147E-1,1.0199873E0,6.926533E-1,2.543777E-1,1.0358924E0,7.394279E-1,-1.9348595E-1,9.743496E-1,1.0288793E0,-9.7919697E-1,5.402901E-1,-8.9948773E-1,2.5812835E-1,9.6629316E-1,1.0310352E0,6.5186656E-1,3.7324408E-1,1.6901268E-2,1.3895479E-1,6.534693E-2,1.4629044E-1,2.5076944E-1,-6.4359665E-1,-9.306478E-1,6.3868724E-2,-9.106233E-1,2.3353854E-1,2.4913542E-1,-2.87779E-1,2.293415E-1,2.5443327E-1,-8.6049956E-1,2.5559378E-1,2.6153696E-1,2.5577387E-1,1.914902E-1,7.744582E-2,-3.1214225E-1,2.5424495E-1,1.9250503E-1,2.4797726E-1,2.579258E-1,2.539785E-1,1.1322655E-1,1.8098323E-1,-8.1949395E-1,-9.07317E-2,-5.889099E-1,7.881467E-2,2.5424802E-1,2.0999674E-1,2.5481966E-1,2.6433462E-1,-1.8126138E-1,1.6208494E-1,1.21266805E-1,-7.010407E-2],"categories":[],"categories_nodes":[],"categories_segments":[],"categories_sizes":[],"default_left":[0,0,0,0,0,0,0,0,0,0,0,0,0,0,0,0,0,0,0,0,0,0,0,0,0,0,0,0,0,0,0,0,0,0,0,0,0,0,0,0,0,0,0,0,0,0,0,0,0,0,0,0,0,0,0,0,0,0,0,0,0,0,0,0,0,0,0,0,0,0,0,0,0,0,0,0,0,0,0,0,0,0,0,0,0,0,0,0,0,0,0],"id":8,"left_children":[1,3,5,7,9,11,13,15,17,-1,-1,19,21,23,25,27,29,31,33,35,37,39,41,43,45,47,49,51,53,-1,-1,55,57,59,61,63,65,-1,67,69,71,73,75,-1,77,79,81,83,85,87,89,-1,-1,-1,-1,-1,-1,-1,-1,-1,-1,-1,-1,-1,-1,-1,-1,-1,-1,-1,-1,-1,-1,-1,-1,-1,-1,-1,-1,-1,-1,-1,-1,-1,-1,-1,-1,-1,-1,-1,-1],"loss_changes":[1.57199375E4,1.3162609E4,2.90385E4,8.587594E3,3.490918E1,3.2875938E3,6.7105938E3,4.8588594E3,1.3568163E4,0E0,0E0,3.0078125E1,4.8105312E3,8.190754E3,7.2835312E3,3.3041094E3,3.9407227E1,4.3721865E3,2.6511738E3,1.7875195E2,7.34375E-1,2.180211E3,4.4164062E1,4.4913047E3,7.5502324E3,4.2589844E1,3.7142031E3,3.2188267E3,2.4869062E3,0E0,0E0,1.4396646E3,3.6025205E3,2.7386035E2,2.9962433E2,1.2173828E1,2.6552925E3,0E0,5.9765625E-1,1.8562188E3,3.336946E3,1.0397266E2,1.203125E0,0E0,2.988293E3,9.546319E3,3.7259019E3,1.0159668E2,2.7734375E-1,2.5688281E3,4.02312E3,0E0,0E0,0E0,0E0,0E0,0E0,0E0,0E0,0E0,0E0,0E0,0E0,0E0,0E0,0E0,0E0,0E0,0E0,0E0,0E0,0E0,0E0,0E0,0E0,0E0,0E0,0E0,0E0,0E0,0E0,0E0,0E0,0E0,0E0,0E0,0E0,0E0,0E0,0E0,0E0],"parents":[2147483647,0,0,1,1,2,2,3,3,4,4,5,5,6,6,7,7,8,8,11,11,12,12,13,13,14,14,15,15,16,16,17,17,18,18,19,19,20,20,21,21,22,22,23,23,24,24,25,25,26,26,27,27,28,28,31,31,32,32,33,33,34,34,35,35,36,36,38,38,39,39,40,40,41,41,42,42,44,44,45,45,46,46,47,47,48,48,49,49,50,50],"right_children":[2,4,6,8,10,12,14,16,18,-1,-1,20,22,24,26,28,30,32,34,36,38,40,42,44,46,48,50,52,54,-1,-1,56,58,60,62,64,66,-1,68,70,72,74,76,-1,78,80,82,84,86,88,90,-1,-1,-1,-1,-1,-1,-1,-1,-1,-1,-1,-1,-1,-1,-1,-1,-1,-1,-1,-1,-1,-1,-1,-1,-1,-1,-1,-1,-1,-1,-1,-1,-1,-1,-1,-1,-1,-1,-1,-1],"split_conditions":[-3.1833285E-1,1.657182E0,-3.1594878E-1,-3.1833792E-1,1.3677938E0,-3.169805E-1,-3.158719E-1,1.711956E0,1.259518E0,-8.828295E-1,-1.0146985E0,-3.182115E-1,-3.1654304E-1,-3.1588924E-1,-3.1559485E-1,-3.186221E-1,6.0250926E-1,-1.1569022E0,5.0617445E-1,1.2984556E0,8.059565E-1,1.4877254E0,-3.1644794E-1,-1.7825106E0,-7.715637E-1,-3.1580284E-1,1.2998E0,4.2052242E-1,-1.6841943E0,-1.1270409E0,-8.451112E-1,6.4466625E-1,-1.6434592E0,-3.1833452E-1,1.6910273E0,-1.7532367E0,1.3127309E0,2.543777E-1,-1.3011649E0,-3.1655362E-1,-3.1689924E-1,-1.5406344E0,-1.1923325E0,-9.7919697E-1,1.1961168E0,-7.432843E-1,-1.3072629E0,8.009181E-1,1.4579549E0,-1.7461357E0,7.8983253E-1,1.6901268E-2,1.3895479E-1,6.534693E-2,1.4629044E-1,2.5076944E-1,-6.4359665E-1,-9.306478E-1,6.3868724E-2,-9.106233E-1,2.3353854E-1,2.4913542E-1,-2.87779E-1,2.293415E-1,2.5443327E-1,-8.6049956E-1,2.5559378E-1,2.6153696E-1,2.5577387E-1,1.914902E-1,7.744582E-2,-3.1214225E-1,2.5424495E-1,1.9250503E-1,2.4797726E-1,2.579258E-1,2.539785E-1,1.1322655E-1,1.8098323E-1,-8.1949395E-1,-9.07317E-2,-5.889099E-1,7.881467E-2,2.5424802E-1,2.0999674E-1,2.5481966E-1,2.6433462E-1,-1.8126138E-1,1.6208494E-1,1.21266805E-1,-7.010407E-2],"split_indices":[2,1,2,2,5,2,2,5,5,0,0,2,2,2,2,2,0,8,8,8,8,6,2,1,0,2,0,8,0,0,0,5,1,2,8,1,8,0,7,2,2,0,7,0,1,1,7,1,8,7,6,0,0,0,0,0,0,0,0,0,0,0,0,0,0,0,0,0,0,0,0,0,0,0,0,0,0,0,0,0,0,0,0,0,0,0,0,0,0,0,0],"split_type":[0,0,0,0,0,0,0,0,0,0,0,0,0,0,0,0,0,0,0,0,0,0,0,0,0,0,0,0,0,0,0,0,0,0,0,0,0,0,0,0,0,0,0,0,0,0,0,0,0,0,0,0,0,0,0,0,0,0,0,0,0,0,0,0,0,0,0,0,0,0,0,0,0,0,0,0,0,0,0,0,0,0,0,0,0,0,0,0,0,0,0],"sum_hessian":[1.8424794E6,5.4932975E5,1.2931495E6,5.4862494E5,7.0484686E2,4.1398528E5,8.7916425E5,5.1864112E5,2.9983799E4,3.9809335E2,3.0675354E2,1.9099889E5,2.229864E5,2.2015103E5,6.5901325E5,5.1836338E5,2.7775092E2,2.8356004E4,1.6277936E3,1.8406188E4,1.725927E5,1.28185125E5,9.480127E4,1.8938275E5,3.0768277E4,5.3178766E4,6.0583444E5,5.2907777E4,4.654556E5,4.8039265E1,2.2971165E2,8.622977E2,2.7493707E4,1.1535657E3,4.7422803E2,1.6540543E4,1.8656461E3,1.3190462E5,4.0688082E4,1.2562949E5,2.555636E3,1.9014734E4,7.578654E4,2.212025E2,1.8916155E5,7.425685E3,2.3342592E4,1.4194443E4,3.8984324E4,5.534571E5,5.237735E4,2.6949719E4,2.5958059E4,2.4521979E4,4.4093362E5,1.2902518E2,7.332726E2,2.2373273E2,2.7269975E4,1.1409889E3,1.2576685E1,7.481551E1,3.994125E2,1.4023309E3,1.5138212E4,1.4013278E2,1.7255133E3,3.3474622E3,3.734062E4,1.1618396E5,9.445529E3,1.3631482E3,1.1924878E3,2.3848755E3,1.662986E4,1.0323182E4,6.546336E4,1.3213347E5,5.702808E4,1.3418174E3,6.0838677E3,5.221191E2,2.2820473E4,9.310221E3,4.884223E3,3.8056496E4,9.2782526E2,1.335931E3,5.521212E5,4.4458094E4,7.91926E3],"tree_param":{"num_deleted":"0","num_feature":"11","num_nodes":"91","size_leaf_vector":"1"}},{"base_weights":[5.8062357E-1,6.481994E-2,9.8958534E-1,3.836223E-1,-2.3568068E-1,9.918165E-1,-1.5453147E0,-5.44426E-1,5.912053E-1,6.6152565E-2,-4.7357935E-1,7.466268E-1,9.965791E-1,-3.0810502E-1,-1.5628732E0,-1.5196711E-1,-1.0544147E0,9.0751606E-1,3.3236933E-1,-3.385798E-1,6.3482094E-1,-1.9250947E0,-2.8584477E-1,8.3355135E-1,-1.5388714E0,9.7659314E-1,1.0094578E0,-3.922561E-1,-3.3471513E-1,-8.893291E-1,3.139236E-1,-8.107923E-1,-3.0087068E0,-1.5083239E0,1.0009857E0,-1.483577E-1,6.827381E-1,-6.3204217E-1,2.6057374E-1,-1.508108E0,7.3448986E-1,-2.5155774E-1,-2.1224043E0,1.1144491E0,-3.831532E-1,-9.58694E-1,8.725626E-1,-1.1387204E0,-3.9209935E-1,9.995886E-1,-6.1304186E-2,1.0114735E0,9.0195495E-1,-1.12279266E-1,-3.5547128E-1,-3.3677995E-1,9.371448E-2,-2.7655444E-1,-1.613968E-2,-5.264077E-1,-1.3662785E0,-3.2048702E-1,-3.7693128E-1,2.5191823E-1,2.2716162E-1,-5.203105E-1,3.8690853E-3,1.9809574E-1,-9.51931E-2,-1.8070128E-2,-3.524993E-1,2.6566356E-1,-1.0766017E-1,-4.0870515E-1,1.2171173E-2,1.4127433E-1,2.3467219E-1,-1.9371866E0,-1.4732559E-2,-4.4384578E-1,-6.1536074E-1,2.7419072E-1,3.061209E-1,-1.2962738E-2,-1.7253792E-1,-5.1311606E-1,1.9979565E-1,1.4275627E-1,2.3952645E-1,-3.786829E-1,1.5483138E-1,2.4938986E-1,1.8867695E-1,-1.238517E0,1.9032487E-1,2.5049984E-1,2.474611E-1,2.3742123E-1,7.885326E-2],"categories":[],"categories_nodes":[],"categories_segments":[],"categories_sizes":[],"default_left":[0,0,0,0,0,0,0,0,0,0,0,0,0,0,0,0,0,0,0,0,0,0,0,0,0,0,0,0,0,0,0,0,0,0,0,0,0,0,0,0,0,0,0,0,0,0,0,0,0,0,0,0,0,0,0,0,0,0,0,0,0,0,0,0,0,0,0,0,0,0,0,0,0,0,0,0,0,0,0,0,0,0,0,0,0,0,0,0,0,0,0,0,0,0,0,0,0,0,0],"id":9,"left_children":[1,3,5,7,9,11,13,15,17,19,21,23,25,-1,27,29,31,33,35,37,39,41,43,45,47,49,51,-1,-1,53,55,57,59,61,63,65,67,69,71,73,75,77,79,81,83,85,87,89,-1,91,93,95,97,-1,-1,-1,-1,-1,-1,-1,-1,-1,-1,-1,-1,-1,-1,-1,-1,-1,-1,-1,-1,-1,-1,-1,-1,-1,-1,-1,-1,-1,-1,-1,-1,-1,-1,-1,-1,-1,-1,-1,-1,-1,-1,-1,-1,-1,-1],"loss_changes":[3.368487E5,6.765301E4,5.0391875E3,6.601261E4,2.6103473E4,1.038375E3,2.1790771E0,1.2536307E4,2.2926062E4,3.687946E4,5.539742E4,3.3706367E3,2.2375E2,0E0,1.376709E0,1.2160405E4,1.2966266E4,2.8457852E4,2.5939516E4,1.6459639E4,1.4230979E4,7.6873594E3,2.4529266E4,1.1432324E3,9.680786E0,8.1651875E3,1.14E2,0E0,0E0,3.267787E3,2.3595474E3,5.5466426E3,6.6735625E3,1.340625E1,1.734375E2,2.0815877E4,1.1226789E4,2.7850508E4,1.7417611E4,6.644326E2,2.2272422E3,3.5745303E3,2.4913516E3,7.3359375E0,1.749872E4,6.884741E2,4.5167773E2,4.7911148E1,0E0,6.7740625E2,3.0470215E4,5.75E0,3.293589E2,0E0,0E0,0E0,0E0,0E0,0E0,0E0,0E0,0E0,0E0,0E0,0E0,0E0,0E0,0E0,0E0,0E0,0E0,0E0,0E0,0E0,0E0,0E0,0E0,0E0,0E0,0E0,0E0,0E0,0E0,0E0,0E0,0E0,0E0,0E0,0E0,0E0,0E0,0E0,0E0,0E0,0E0,0E0,0E0,0E0,0E0],"parents":[2147483647,0,0,1,1,2,2,3,3,4,4,5,5,6,6,7,7,8,8,9,9,10,10,11,11,12,12,14,14,15,15,16,16,17,17,18,18,19,19,20,20,21,21,22,22,23,23,24,24,25,25,26,26,29,29,30,30,31,31,32,32,33,33,34,34,35,35,36,36,37,37,38,38,39,39,40,40,41,41,42,42,43,43,44,44,45,45,46,46,47,47,49,49,50,50,51,51,52,52],"right_children":[2,4,6,8,10,12,14,16,18,20,22,24,26,-1,28,30,32,34,36,38,40,42,44,46,48,50,52,-1,-1,54,56,58,60,62,64,66,68,70,72,74,76,78,80,82,84,86,88,90,-1,92,94,96,98,-1,-1,-1,-1,-1,-1,-1,-1,-1,-1,-1,-1,-1,-1,-1,-1,-1,-1,-1,-1,-1,-1,-1,-1,-1,-1,-1,-1,-1,-1,-1,-1,-1,-1,-1,-1,-1,-1,-1,-1,-1,-1,-1,-1,-1,-1],"split_conditions":[9.7354114E-1,-2.9835486E-1,1.7302737E0,-4.0024725E-1,-5.6891006E-1,1.1436793E0,-1.6137129E0,9.6387917E-1,-3.1344518E-1,9.962034E-2,-4.7525004E-1,1.9748454E-1,4.1081457E0,-3.0810502E-1,1.4197959E0,-4.1303977E-1,-4.064516E-1,-1.2097015E0,-3.4587905E-1,-1.0419815E0,-1.3353046E0,-1.625623E-1,-3.1344518E-1,-1.2097015E0,-1.3816377E0,7.0841426E-1,7.0205684E0,-3.922561E-1,-3.3471513E-1,4.529494E-1,-1.2097015E0,1.7302737E0,3.0050394E-1,-1.3288171E0,-8.243749E-1,-3.0945968E-2,1.7333135E-1,-1.0798398E0,-8.243749E-1,2.1072512E0,-1.0419815E0,-1.1877792E0,2.2530682E-1,1.6655521E0,-1.2028302E-1,2.1072512E0,-4.7525004E-1,-1.3932387E0,-3.9209935E-1,1.9748454E-1,3.0761468E0,1.4748089E0,1.4748089E0,-1.12279266E-1,-3.5547128E-1,-3.3677995E-1,9.371448E-2,-2.7655444E-1,-1.613968E-2,-5.264077E-1,-1.3662785E0,-3.2048702E-1,-3.7693128E-1,2.5191823E-1,2.2716162E-1,-5.203105E-1,3.8690853E-3,1.9809574E-1,-9.51931E-2,-1.8070128E-2,-3.524993E-1,2.6566356E-1,-1.0766017E-1,-4.0870515E-1,1.2171173E-2,1.4127433E-1,2.3467219E-1,-1.9371866E0,-1.4732559E-2,-4.4384578E-1,-6.1536074E-1,2.7419072E-1,3.061209E-1,-1.2962738E-2,-1.7253792E-1,-5.1311606E-1,1.9979565E-1,1.4275627E-1,2.3952645E-1,-3.786829E-1,1.5483138E-1,2.4938986E-1,1.8867695E-1,-1.238517E0,1.9032487E-1,2.5049984E-1,2.474611E-1,2.3742123E-1,7.885326E-2],"split_indices":[3,3,9,3,9,3,8,9,9,3,9,9,3,0,8,3,3,9,3,9,9,3,9,9,5,9,3,0,0,9,9,9,5,10,9,9,10,9,9,10,9,10,3,5,3,10,9,5,0,9,3,9,9,0,0,0,0,0,0,0,0,0,0,0,0,0,0,0,0,0,0,0,0,0,0,0,0,0,0,0,0,0,0,0,0,0,0,0,0,0,0,0,0,0,0,0,0,0,0],"split_type":[0,0,0,0,0,0,0,0,0,0,0,0,0,0,0,0,0,0,0,0,0,0,0,0,0,0,0,0,0,0,0,0,0,0,0,0,0,0,0,0,0,0,0,0,0,0,0,0,0,0,0,0,0,0,0,0,0,0,0,0,0,0,0,0,0,0,0,0,0,0,0,0,0,0,0,0,0,0,0,0,0,0,0,0,0,0,0,0,0,0,0,0,0,0,0,0,0,0,0],"sum_hessian":[1.5968629E6,7.0618594E5,8.9067694E5,3.426582E5,3.6352772E5,8.8989425E5,7.826733E2,6.2634484E4,2.800237E5,1.6023312E5,2.0329461E5,1.6958902E4,8.729354E5,4.7279984E1,7.3539325E2,3.5396562E4,2.7237924E4,1.26019234E5,1.5400445E5,9.360969E4,6.662344E4,2.328119E4,1.8001342E5,1.6338148E4,6.2075494E2,3.4210897E5,5.308264E5,6.5740393E2,7.798935E1,1.370494E4,2.1691621E4,2.4220062E4,3.017862E3,4.693545E3,1.2132569E5,6.4924598E4,8.907986E4,6.2833906E4,3.0775783E4,2.9603503E3,6.3663086E4,2.455601E3,2.0825588E4,1.1695899E4,1.6831752E5,3.4754926E2,1.5990599E4,6.686364E1,5.538913E2,3.346936E5,7.415381E3,5.2104847E5,9.777937E3,7.635519E3,6.069421E3,8.0835333E2,2.0883268E4,1.715274E4,7.0673223E3,2.236359E3,7.8150305E2,3.2246317E2,4.3710815E3,1.0024886E5,2.1076828E4,5.0239575E3,5.990064E4,8.021033E4,8.869531E3,3.685363E4,2.5980277E4,1.4188828E4,1.6586953E4,2.7096382E3,2.5071217E2,3.611322E4,2.7549865E4,5.968579E1,2.3959153E3,1.0971084E4,9.854505E3,1.1157185E4,5.387144E2,8.201558E4,8.630194E4,2.1291074E2,1.3463853E2,3.9139832E3,1.2076616E4,5.4816437E1,1.2047199E1,3.2302512E5,1.1668471E4,1.065726E3,6.349655E3,4.7192178E5,4.9126684E4,8.895577E3,8.823595E2],"tree_param":{"num_deleted":"0","num_feature":"11","num_nodes":"99","size_leaf_vector":"1"}},{"base_weights":[5.336806E-1,5.359058E-2,9.7280955E-1,3.3314732E-1,-2.0931971E-1,9.7505236E-1,-3.4020472E-1,8.409894E-1,5.895255E-2,-1.7088728E-1,-1.5461578E0,5.674011E-1,9.873895E-1,-1.3251996E0,9.8536074E-1,-4.4938242E-1,4.3073753E-1,-1.5523258E0,-1.3482282E-1,-2.515763E0,-9.439014E-1,6.8519384E-1,-1.9010192E0,8.7197155E-1,9.9194986E-1,-1.2615701E0,-1.3644584E0,1.0142357E0,8.515598E-1,-1.3500026E-1,-9.842417E-1,5.929801E-1,-3.2307884E-1,-1.7257847E0,-1.4122618E0,4.5917454E-1,-2.6599643E-1,-3.6974773E0,-2.0803928E0,1.0740836E0,-1.6902581E0,1.4849284E-1,9.7140366E-1,-2.2606766E0,5.7946146E-1,9.331741E-1,-2.5565615E0,9.716829E-1,1.0041908E0,-2.9906827E-1,-3.321321E-1,-3.4023368E-1,-3.0766526E-1,2.51076E-1,2.4664302E-1,-1.9473497E-2,2.2498767E-1,-1.0807496E-1,1.4478791E-1,-9.7109206E-2,-4.215522E-1,1.4821596E-1,-3.4295573E0,-8.974837E-1,-1.6768318E-2,-3.4026593E-1,-4.3361962E-1,-3.6058986E-1,-1.1452147E-2,4.8294462E-2,2.5924307E-1,-2.6797152E-1,-3.9887965E-2,-7.609013E-1,-1.1762017E0,-5.8963525E-1,-3.6694583E-1,2.6339227E-1,3.1735584E-1,-4.2413294E-1,1.2861069E-1,2.094739E-1,-4.6317896E-1,2.4650419E-1,1.936111E-1,-6.6161454E-1,-3.4967417E-1,2.4664874E-1,-7.256623E-1,-4.9885267E-1,2.3868446E-1,-4.6298686E-1,-1.3131922E0,2.4641109E-1,9.849663E-3,2.4905188E-1,2.1545416E-1],"categories":[],"categories_nodes":[],"categories_segments":[],"categories_sizes":[],"default_left":[0,0,0,0,0,0,0,0,0,0,0,0,0,0,0,0,0,0,0,0,0,0,0,0,0,0,0,0,0,0,0,0,0,0,0,0,0,0,0,0,0,0,0,0,0,0,0,0,0,0,0,0,0,0,0,0,0,0,0,0,0,0,0,0,0,0,0,0,0,0,0,0,0,0,0,0,0,0,0,0,0,0,0,0,0,0,0,0,0,0,0,0,0,0,0,0,0],"id":10,"left_children":[1,3,5,7,9,11,-1,13,15,17,19,21,23,25,27,29,31,33,35,37,39,41,43,45,47,49,51,53,55,57,59,61,63,65,67,69,71,73,75,77,79,81,83,85,87,89,91,93,95,-1,-1,-1,-1,-1,-1,-1,-1,-1,-1,-1,-1,-1,-1,-1,-1,-1,-1,-1,-1,-1,-1,-1,-1,-1,-1,-1,-1,-1,-1,-1,-1,-1,-1,-1,-1,-1,-1,-1,-1,-1,-1,-1,-1,-1,-1,-1,-1],"loss_changes":[2.889998E5,4.8132117E4,3.7718125E3,4.4195586E4,1.7339E4,3.59675E3,0E0,3.4803016E4,3.895285E4,1.6343756E4,5.504871E3,6.1112383E3,3.645E2,1.5650391E1,4.0221094E2,1.4640006E4,1.455933E4,2.003418E2,2.4910852E4,1.8510723E3,8.766223E3,3.0808193E3,8.5538965E2,5.5413496E3,1.6475E2,9.74707E0,3.9399414E0,5.46875E-2,9.985332E2,1.1924183E4,1.3727354E4,8.751145E3,1.7789281E4,3.2933594E1,2.866377E2,8.987495E3,2.241919E4,6.237529E2,4.7476074E2,1.6982422E0,2.2880078E2,9.847344E3,6.1126953E1,2.8943213E2,1.8194115E2,2.4264648E3,8.632092E2,5.7231562E3,1.425625E2,0E0,0E0,0E0,0E0,0E0,0E0,0E0,0E0,0E0,0E0,0E0,0E0,0E0,0E0,0E0,0E0,0E0,0E0,0E0,0E0,0E0,0E0,0E0,0E0,0E0,0E0,0E0,0E0,0E0,0E0,0E0,0E0,0E0,0E0,0E0,0E0,0E0,0E0,0E0,0E0,0E0,0E0,0E0,0E0,0E0,0E0,0E0,0E0],"parents":[2147483647,0,0,1,1,2,2,3,3,4,4,5,5,7,7,8,8,9,9,10,10,11,11,12,12,13,13,14,14,15,15,16,16,17,17,18,18,19,19,20,20,21,21,22,22,23,23,24,24,25,25,26,26,27,27,28,28,29,29,30,30,31,31,32,32,33,33,34,34,35,35,36,36,37,37,38,38,39,39,40,40,41,41,42,42,43,43,44,44,45,45,46,46,47,47,48,48],"right_children":[2,4,6,8,10,12,-1,14,16,18,20,22,24,26,28,30,32,34,36,38,40,42,44,46,48,50,52,54,56,58,60,62,64,66,68,70,72,74,76,78,80,82,84,86,88,90,92,94,96,-1,-1,-1,-1,-1,-1,-1,-1,-1,-1,-1,-1,-1,-1,-1,-1,-1,-1,-1,-1,-1,-1,-1,-1,-1,-1,-1,-1,-1,-1,-1,-1,-1,-1,-1,-1,-1,-1,-1,-1,-1,-1,-1,-1,-1,-1,-1,-1],"split_conditions":[8.4567994E-1,-2.812129E-1,1.7302737E0,-3.1344518E-1,1.219344E0,1.0549015E0,-3.4020472E-1,-1.2097015E0,-3.8572773E-1,-1.3353046E0,1.2195944E0,1.9748454E-1,1.2984143E0,-3.967488E-1,-8.243749E-1,-3.1594878E-1,2.0434082E-1,-2.4786884E-2,-1.0798398E0,1.1415938E-2,1.464981E0,-4.7525004E-1,3.348067E0,1.3815875E-1,4.1081457E0,2.6085043E-1,1.3100543E0,-3.1229872E-1,-1.3288171E0,-3.1833285E-1,9.6387917E-1,3.3925438E0,-3.1859297E-1,-1.3288171E0,2.454022E0,-1.2097015E0,-1.0419815E0,6.833994E-2,2.2530682E-1,2.8977377E0,2.6827364E0,-5.6891006E-1,1.6609056E-1,9.7354114E-1,3.5650596E-1,-1.2097015E0,1.2339967E0,7.0841426E-1,7.0205684E0,-2.9906827E-1,-3.321321E-1,-3.4023368E-1,-3.0766526E-1,2.51076E-1,2.4664302E-1,-1.9473497E-2,2.2498767E-1,-1.0807496E-1,1.4478791E-1,-9.7109206E-2,-4.215522E-1,1.4821596E-1,-3.4295573E0,-8.974837E-1,-1.6768318E-2,-3.4026593E-1,-4.3361962E-1,-3.6058986E-1,-1.1452147E-2,4.8294462E-2,2.5924307E-1,-2.6797152E-1,-3.9887965E-2,-7.609013E-1,-1.1762017E0,-5.8963525E-1,-3.6694583E-1,2.6339227E-1,3.1735584E-1,-4.2413294E-1,1.2861069E-1,2.094739E-1,-4.6317896E-1,2.4650419E-1,1.936111E-1,-6.6161454E-1,-3.4967417E-1,2.4664874E-1,-7.256623E-1,-4.9885267E-1,2.3868446E-1,-4.6298686E-1,-1.3131922E0,2.4641109E-1,9.849663E-3,2.4905188E-1,2.1545416E-1],"split_indices":[3,3,9,9,9,3,0,9,3,9,9,9,3,3,9,2,10,3,9,3,9,9,2,9,3,10,0,3,10,2,9,2,2,10,10,9,9,10,3,2,10,9,10,3,9,9,3,9,3,0,0,0,0,0,0,0,0,0,0,0,0,0,0,0,0,0,0,0,0,0,0,0,0,0,0,0,0,0,0,0,0,0,0,0,0,0,0,0,0,0,0,0,0,0,0,0,0],"split_type":[0,0,0,0,0,0,0,0,0,0,0,0,0,0,0,0,0,0,0,0,0,0,0,0,0,0,0,0,0,0,0,0,0,0,0,0,0,0,0,0,0,0,0,0,0,0,0,0,0,0,0,0,0,0,0,0,0,0,0,0,0,0,0,0,0,0,0,0,0,0,0,0,0,0,0,0,0,0,0,0,0,0,0,0,0,0,0,0,0,0,0,0,0,0,0,0,0],"sum_hessian":[1.3708271E6,6.5487156E5,7.159556E5,3.1738775E5,3.3748378E5,7.15273E5,6.826297E2,1.11280555E5,2.061072E5,3.2805378E5,9.430008E3,2.1012527E4,6.9426044E5,6.95266E3,1.043279E5,8.706482E4,1.1904238E5,8.3453545E3,3.197084E5,3.6118757E3,5.818132E3,2.005617E4,9.563558E2,2.6395799E4,6.678647E5,2.6655483E3,4.287112E3,8.580426E4,1.8523643E4,5.4834934E4,3.2229887E4,9.795905E4,2.1083342E4,3.723169E3,4.622186E3,5.783047E4,2.6187795E5,9.7041364E2,2.6414622E3,1.5707444E3,4.2473877E3,6.9760986E3,1.3080072E4,8.353262E2,1.2102959E2,2.5933588E4,4.6221072E2,2.5151712E5,4.1634753E5,1.6260901E3,1.0394581E3,3.9221658E3,3.6494617E2,8.2286055E4,3.5181968E3,1.0860068E3,1.7437637E4,3.8640547E4,1.6194385E4,1.769065E4,1.4539234E4,9.791819E4,4.0855816E1,1.5108766E3,1.9572465E4,2.7103574E2,3.452133E3,4.473438E3,1.4874832E2,3.993135E4,1.789912E4,2.9751441E4,2.321265E5,6.135818E2,3.5683185E2,1.7498906E3,8.9157153E2,1.5093522E3,6.1392166E1,4.20147E3,4.5917282E1,5.1850356E3,1.7910629E3,1.1542416E4,1.5376569E3,5.5972424E2,2.75602E2,1.0881075E2,1.2218827E1,2.7500812E2,2.565858E4,3.7143848E2,9.077224E1,2.4509469E5,6.4224404E3,4.0841478E5,7.9327627E3],"tree_param":{"num_deleted":"0","num_feature":"11","num_nodes":"97","size_leaf_vector":"1"}},{"base_weights":[4.8429972E-1,4.1689423E-1,6.8005234E-1,4.5114958E-1,-3.309084E-1,8.3997035E-1,1.9379574E-1,4.0428022E-1,1.0364459E0,-1.1102452E0,-5.2169796E-2,7.4441075E-1,2.507921E-1,2.6290676E-1,-5.535236E-1,4.3894994E-1,-5.286065E-1,1.035627E0,1.258283E0,-2.2844702E-1,-1.6070266E0,1.4849603E-1,-1.220599E0,1.0244129E0,6.8485475E-1,-2.4553452E-1,3.7656394E-1,-3.0127165E0,-3.5889497E-1,4.016555E-1,1.0366697E0,-9.3869334E-1,-3.9504744E-2,1.0290277E0,1.0405406E0,1.3394911E0,2.565641E-1,-2.7648604E0,3.8280645E-1,-1.35327E0,-3.0325968E0,9.379252E-1,-3.51566E-2,-3.6758227E0,-9.469427E-1,1.0192015E0,1.0725292E0,5.4062665E-1,7.7902347E-1,2.6730388E-1,-1.0563918E0,5.5302435E-1,1.2742482E-1,-3.1018462E0,-1.6454314E0,-1.24414004E-1,-2.2888856E0,1.3698967E-1,3.3227608E-2,2.7258387E-1,2.5608024E-1,-1.7256093E-1,-6.967038E-1,-3.597405E-1,3.2101624E-2,2.6117307E-1,2.540718E-1,2.566589E-1,2.6435655E-1,2.4832565E-1,3.4923595E-1,-9.081781E-1,-8.2029775E-2,-1.0203571E0,1.5900423E-1,-4.9428E-1,-1.0642885E-1,-1.1069498E0,-5.852035E-1,2.3466437E-1,-4.8962238E-1,-1.5802422E-1,3.4450177E-2,-1.1811649E0,-5.385981E-1,7.790027E-2,-3.6430085E-1,2.5058642E-1,2.5397733E-1,2.5226024E-1,2.9258674E-1,8.195062E-2,1.8097846E-1,1.7184448E-1,2.0251901E-1,-6.972486E-2,1.9590522E-1,-1.8016851E-1,-7.408381E-1,7.0258304E-2,1.9372644E-1,-1.9566125E-1,4.5726825E-2,-7.7647907E-1,-3.0119655E-1,-5.678664E-1,-3.296146E-1,-2.500123E-1,4.1954994E-2,-7.782781E-3,-6.9579333E-1],"categories":[],"categories_nodes":[],"categories_segments":[],"categories_sizes":[],"default_left":[0,0,0,0,0,0,0,0,0,0,0,0,0,0,0,0,0,0,0,0,0,0,0,0,0,0,0,0,0,0,0,0,0,0,0,0,0,0,0,0,0,0,0,0,0,0,0,0,0,0,0,0,0,0,0,0,0,0,0,0,0,0,0,0,0,0,0,0,0,0,0,0,0,0,0,0,0,0,0,0,0,0,0,0,0,0,0,0,0,0,0,0,0,0,0,0,0,0,0,0,0,0,0,0,0,0,0,0,0,0,0],"id":11,"left_children":[1,3,5,7,9,11,13,15,17,19,21,23,-1,25,27,29,31,33,35,37,39,41,43,45,47,49,51,53,55,57,59,61,63,65,67,69,-1,71,73,75,77,79,81,83,85,87,89,91,93,95,97,99,101,103,105,107,109,-1,-1,-1,-1,-1,-1,-1,-1,-1,-1,-1,-1,-1,-1,-1,-1,-1,-1,-1,-1,-1,-1,-1,-1,-1,-1,-1,-1,-1,-1,-1,-1,-1,-1,-1,-1,-1,-1,-1,-1,-1,-1,-1,-1,-1,-1,-1,-1,-1,-1,-1,-1,-1,-1],"loss_changes":[1.569225E4,2.2662125E4,2.368789E4,2.3205312E4,8.41778E3,3.8073438E3,3.8939587E3,2.533143E4,1.00859375E1,4.4715234E3,6.692531E3,2.4660938E3,0E0,3.9880508E3,3.0536365E3,1.6832969E4,5.628981E3,9.53125E-1,2.669159E0,5.7062344E3,2.3579434E3,3.531847E3,2.8074517E3,5.4140625E0,1.6563438E3,5.243482E3,2.47956E3,5.19209E1,2.6766558E3,2.8905188E4,3.1445312E0,6.9095537E3,3.0655288E3,3.1445312E-1,1.9140625E0,2.5093079E0,0E0,1.575082E3,3.4782527E3,3.299338E3,9.3766113E2,1.452644E2,2.0809807E3,6.7996533E2,2.4983826E3,5.078125E-2,1.3434326E1,1.9262373E3,2.4623438E2,2.2257195E3,3.104482E3,2.0435068E3,1.2334578E3,2.6743652E1,3.2016602E0,1.3748105E3,7.5758813E2,0E0,0E0,0E0,0E0,0E0,0E0,0E0,0E0,0E0,0E0,0E0,0E0,0E0,0E0,0E0,0E0,0E0,0E0,0E0,0E0,0E0,0E0,0E0,0E0,0E0,0E0,0E0,0E0,0E0,0E0,0E0,0E0,0E0,0E0,0E0,0E0,0E0,0E0,0E0,0E0,0E0,0E0,0E0,0E0,0E0,0E0,0E0,0E0,0E0,0E0,0E0,0E0,0E0,0E0],"parents":[2147483647,0,0,1,1,2,2,3,3,4,4,5,5,6,6,7,7,8,8,9,9,10,10,11,11,13,13,14,14,15,15,16,16,17,17,18,18,19,19,20,20,21,21,22,22,23,23,24,24,25,25,26,26,27,27,28,28,29,29,30,30,31,31,32,32,33,33,34,34,35,35,37,37,38,38,39,39,40,40,41,41,42,42,43,43,44,44,45,45,46,46,47,47,48,48,49,49,50,50,51,51,52,52,53,53,54,54,55,55,56,56],"right_children":[2,4,6,8,10,12,14,16,18,20,22,24,-1,26,28,30,32,34,36,38,40,42,44,46,48,50,52,54,56,58,60,62,64,66,68,70,-1,72,74,76,78,80,82,84,86,88,90,92,94,96,98,100,102,104,106,108,110,-1,-1,-1,-1,-1,-1,-1,-1,-1,-1,-1,-1,-1,-1,-1,-1,-1,-1,-1,-1,-1,-1,-1,-1,-1,-1,-1,-1,-1,-1,-1,-1,-1,-1,-1,-1,-1,-1,-1,-1,-1,-1,-1,-1,-1,-1,-1,-1,-1,-1,-1,-1,-1,-1],"split_conditions":[1.0022281E0,9.6387917E-1,1.4748089E0,7.23387E-1,-3.1833285E-1,1.2195944E0,-3.140281E-1,7.0841426E-1,2.6827364E0,-8.518597E-1,-3.140282E-1,1.219344E0,2.507921E-1,-3.1859297E-1,-3.1402773E-1,4.9813065E-1,1.5538679E-1,-9.925676E-2,8.803842E-1,-8.9222425E-1,-3.1836095E-1,-3.169086E-1,-3.1402776E-1,1.8427857E0,-8.9222425E-1,-3.613927E-1,-3.1594634E-1,1.2427582E0,1.7302737E0,-3.1344518E-1,-1.5937356E0,9.6192497E-1,-3.1859443E-1,-1.7166442E0,2.8093374E0,7.7542835E-1,2.565641E-1,1.0844603E0,-4.57863E-1,-3.1859297E-1,-6.506826E-1,2.454022E0,-5.949791E-1,-8.9222425E-1,-3.1364986E-1,1.6609056E-1,3.6345083E-1,2.4101697E-1,-3.1833372E-1,5.5596143E-1,1.7302737E0,-3.1833285E-1,-1.4087065E0,1.6059525E0,7.6657766E-1,-2.7386597E-1,-1.7047029E0,1.3698967E-1,3.3227608E-2,2.7258387E-1,2.5608024E-1,-1.7256093E-1,-6.967038E-1,-3.597405E-1,3.2101624E-2,2.6117307E-1,2.540718E-1,2.566589E-1,2.6435655E-1,2.4832565E-1,3.4923595E-1,-9.081781E-1,-8.2029775E-2,-1.0203571E0,1.5900423E-1,-4.9428E-1,-1.0642885E-1,-1.1069498E0,-5.852035E-1,2.3466437E-1,-4.8962238E-1,-1.5802422E-1,3.4450177E-2,-1.1811649E0,-5.385981E-1,7.790027E-2,-3.6430085E-1,2.5058642E-1,2.5397733E-1,2.5226024E-1,2.9258674E-1,8.195062E-2,1.8097846E-1,1.7184448E-1,2.0251901E-1,-6.972486E-2,1.9590522E-1,-1.8016851E-1,-7.408381E-1,7.0258304E-2,1.9372644E-1,-1.9566125E-1,4.5726825E-2,-7.7647907E-1,-3.0119655E-1,-5.678664E-1,-3.296146E-1,-2.500123E-1,4.1954994E-2,-7.782781E-3,-6.9579333E-1],"split_indices":[9,9,9,9,2,9,2,9,10,5,2,9,0,2,2,9,10,1,9,4,2,2,2,10,4,0,2,7,9,9,10,1,2,1,2,9,0,0,1,2,7,10,10,4,2,10,7,10,2,10,9,2,5,1,0,10,0,0,0,0,0,0,0,0,0,0,0,0,0,0,0,0,0,0,0,0,0,0,0,0,0,0,0,0,0,0,0,0,0,0,0,0,0,0,0,0,0,0,0,0,0,0,0,0,0,0,0,0,0,0,0],"split_type":[0,0,0,0,0,0,0,0,0,0,0,0,0,0,0,0,0,0,0,0,0,0,0,0,0,0,0,0,0,0,0,0,0,0,0,0,0,0,0,0,0,0,0,0,0,0,0,0,0,0,0,0,0,0,0,0,0,0,0,0,0,0,0,0,0,0,0,0,0,0,0,0,0,0,0,0,0,0,0,0,0,0,0,0,0,0,0,0,0,0,0,0,0,0,0,0,0,0,0,0,0,0,0,0,0,0,0,0,0,0,0],"sum_hessian":[1.1892959E6,8.846711E5,3.0462472E5,8.4592156E5,3.8749582E4,2.2923436E5,7.539036E4,7.832057E5,6.2715895E4,1.0207375E4,2.8542207E4,1.4792556E5,8.1308805E4,6.900914E4,6.3812188E3,7.551421E5,2.8063518E4,6.2490902E4,2.2499078E2,3.6788293E3,6.528546E3,2.435957E4,4.1826353E3,2.5942207E4,1.2198335E5,1.2607733E4,5.6401406E4,4.669304E2,5.9142886E3,7.107941E5,4.434799E4,1.5264279E4,1.2799238E4,2.6760275E4,3.573063E4,1.6086104E2,6.4129745E1,7.137171E2,2.9651123E3,5.5436973E3,9.848483E2,4.596679E3,1.976289E4,4.1819452E2,3.764441E3,2.3427092E4,2.5151152E3,4.81871E4,7.379625E4,7.7235396E3,4.884194E3,3.301576E4,2.3385646E4,4.3716415E2,2.9766249E1,5.274532E3,6.39756E2,4.5301978E5,2.5777436E5,9.6833905E2,4.337965E4,1.3528379E4,1.7359001E3,1.3669769E3,1.1432262E4,1.7889875E3,2.497129E4,3.2304963E4,3.4256646E3,3.1138323E1,1.2972272E2,5.1964136E2,1.9407576E2,1.6086859E2,2.8042437E3,3.263019E3,2.2806785E3,3.0962357E2,6.752248E2,4.580568E3,1.6111664E1,4.429658E3,1.5333233E4,2.4000414E2,1.7819038E2,1.1072319E3,2.657209E3,1.286808E4,1.0559013E4,1.7076816E3,8.074335E2,2.2988674E4,2.5198428E4,2.3601002E4,5.019525E4,3.773771E3,3.9497688E3,4.1783833E3,7.058109E2,1.5222076E4,1.7793684E4,1.375431E3,2.2010215E4,4.2808755E2,9.076586E0,7.6146603E0,2.2151588E1,1.3133317E3,3.9612007E3,1.2069045E2,5.190655E2],"tree_param":{"num_deleted":"0","num_feature":"11","num_nodes":"111","size_leaf_vector":"1"}},{"base_weights":[4.1680455E-1,-4.9754895E-2,4.4709954E-1,-5.42049E-1,1.3698004E-1,3.005266E-1,5.1803106E-1,2.238046E-2,-9.411806E-1,1.0057096E0,-1.3228074E-2,3.3937904E-1,-2.2728351E-1,8.3723325E-1,3.9050388E-1,1.4294395E-1,-2.0741227E0,-1.7353579E0,-6.9506997E-1,1.0181159E0,7.5123227E-1,1.00690804E-1,-4.4919527E-1,5.160438E-1,2.4774483E-1,-9.18518E-2,-2.1276531E0,1.0143315E0,7.0198333E-1,3.2454997E-1,5.900032E-1,-2.1331794E0,2.3258123E-1,-1.1836262E0,-2.911817E0,-1.2719091E0,-2.4711583E0,-2.7572522E-1,-1.0901814E0,1.0284445E0,8.295843E-1,-6.600093E-1,8.8526326E-1,1.6232637E-1,-6.959005E-1,-2.0306137E0,-3.137022E-1,2.0997007E-1,6.164348E-1,-4.0862384E-1,3.69297E-1,-3.930925E-1,3.0120748E-1,-1.062695E0,-2.7291236E0,9.538234E-1,1.0207763E0,5.1035166E-1,1.000013E0,5.0441444E-1,1.8025205E-1,7.8255814E-1,-7.04234E-3,-2.6730618E-1,-8.7552327E-1,7.8156136E-2,-3.0034563E-1,-1.4954717E-1,-3.6673898E-1,-1.4126523E0,-6.5908176E-1,-6.20177E-1,-2.2658448E-1,-3.7936038E-1,-8.9370745E-1,-6.1623746E-1,-3.332433E-2,-1.0920586E-1,-3.543838E-1,2.4794783E-1,2.5712088E-1,-2.1939388E-1,2.5006345E-1,2.3545091E-1,-4.111962E-1,-1.0093212E-1,2.351219E-1,8.815421E-2,5.612598E-3,6.454458E-2,-3.645505E-1,-2.2899526E-1,-8.895357E-1,-3.8938227E-1,-4.465492E-2,2.5496757E-1,1.6227065E-2,2.562498E-1,1.321585E-1,4.8982885E-2,-4.5142165E-1,2.705883E-1,7.2783805E-2,-7.6711047E-1,-5.2365895E-2,1.2311156E-1,-1.1242903E-1,-3.8948086E-1,3.2376483E-2,-8.694339E-1,-5.00289E-1,2.491443E-1,1.385738E-1,2.5832793E-1,2.5178957E-1,1.3238381E-1,-1.3583894E-1,2.295322E-1,2.5237873E-1,5.6298688E-2,1.4794748E-1,-8.046016E-2,8.560242E-2,1.6605385E-1,2.4958248E-1,4.0792036E-3,-7.9305154E-1],"categories":[],"categories_nodes":[],"categories_segments":[],"categories_sizes":[],"default_left":[0,0,0,0,0,0,0,0,0,0,0,0,0,0,0,0,0,0,0,0,0,0,0,0,0,0,0,0,0,0,0,0,0,0,0,0,0,0,0,0,0,0,0,0,0,0,0,0,0,0,0,0,0,0,0,0,0,0,0,0,0,0,0,0,0,0,0,0,0,0,0,0,0,0,0,0,0,0,0,0,0,0,0,0,0,0,0,0,0,0,0,0,0,0,0,0,0,0,0,0,0,0,0,0,0,0,0,0,0,0,0,0,0,0,0,0,0,0,0,0,0,0,0,0,0,0,0],"id":12,"left_children":[1,3,5,7,9,11,13,15,17,19,21,23,25,27,29,31,33,35,37,39,41,43,45,47,49,51,53,55,57,59,61,63,65,67,69,71,73,75,77,79,81,83,85,87,89,91,93,95,97,99,101,103,105,107,109,111,113,115,117,119,121,123,125,-1,-1,-1,-1,-1,-1,-1,-1,-1,-1,-1,-1,-1,-1,-1,-1,-1,-1,-1,-1,-1,-1,-1,-1,-1,-1,-1,-1,-1,-1,-1,-1,-1,-1,-1,-1,-1,-1,-1,-1,-1,-1,-1,-1,-1,-1,-1,-1,-1,-1,-1,-1,-1,-1,-1,-1,-1,-1,-1,-1,-1,-1,-1,-1],"loss_changes":[1.5205469E4,6.030094E3,1.0502344E4,4.0638594E3,6.205705E3,6.7557617E3,2.7710672E4,1.8892253E3,2.064126E3,2.1368652E1,2.013812E3,4.967332E3,5.813298E3,4.6539844E3,6.3999375E3,1.4424885E3,2.997528E2,8.4910205E2,1.3365608E3,1.2158691E1,6.294847E1,1.5785189E3,1.7992944E3,3.2200684E3,1.6120434E4,2.4968667E3,9.595928E2,3.184375E1,6.292453E3,9.48777E3,1.3893672E4,3.9266357E2,8.2054663E2,3.349637E1,1.2939685E2,6.7276074E2,1.0271182E3,1.2228851E3,9.220405E2,7.7001953E-1,1.10497635E2,4.8703773E1,2.5814667E1,8.084775E2,1.7186816E3,1.142875E3,1.2987253E3,3.0671252E3,2.7200352E3,2.7124334E4,9.272709E3,5.863642E3,1.3586147E3,3.3248358E2,5.256328E2,1.6978223E2,4.171875E0,1.7625625E3,6.1929688E1,4.218758E3,1.699958E4,2.3015078E3,2.218606E3,0E0,0E0,0E0,0E0,0E0,0E0,0E0,0E0,0E0,0E0,0E0,0E0,0E0,0E0,0E0,0E0,0E0,0E0,0E0,0E0,0E0,0E0,0E0,0E0,0E0,0E0,0E0,0E0,0E0,0E0,0E0,0E0,0E0,0E0,0E0,0E0,0E0,0E0,0E0,0E0,0E0,0E0,0E0,0E0,0E0,0E0,0E0,0E0,0E0,0E0,0E0,0E0,0E0,0E0,0E0,0E0,0E0,0E0,0E0,0E0,0E0,0E0,0E0,0E0],"parents":[2147483647,0,0,1,1,2,2,3,3,4,4,5,5,6,6,7,7,8,8,9,9,10,10,11,11,12,12,13,13,14,14,15,15,16,16,17,17,18,18,19,19,20,20,21,21,22,22,23,23,24,24,25,25,26,26,27,27,28,28,29,29,30,30,31,31,32,32,33,33,34,34,35,35,36,36,37,37,38,38,39,39,40,40,41,41,42,42,43,43,44,44,45,45,46,46,47,47,48,48,49,49,50,50,51,51,52,52,53,53,54,54,55,55,56,56,57,57,58,58,59,59,60,60,61,61,62,62],"right_children":[2,4,6,8,10,12,14,16,18,20,22,24,26,28,30,32,34,36,38,40,42,44,46,48,50,52,54,56,58,60,62,64,66,68,70,72,74,76,78,80,82,84,86,88,90,92,94,96,98,100,102,104,106,108,110,112,114,116,118,120,122,124,126,-1,-1,-1,-1,-1,-1,-1,-1,-1,-1,-1,-1,-1,-1,-1,-1,-1,-1,-1,-1,-1,-1,-1,-1,-1,-1,-1,-1,-1,-1,-1,-1,-1,-1,-1,-1,-1,-1,-1,-1,-1,-1,-1,-1,-1,-1,-1,-1,-1,-1,-1,-1,-1,-1,-1,-1,-1,-1,-1,-1,-1,-1,-1,-1],"split_conditions":[-1.2097015E0,-3.1833285E-1,-3.1833285E-1,-8.011629E-1,-3.1691998E-1,-3.1833884E-1,-3.1594878E-1,-3.1833956E-1,-3.1861898E-1,-3.169805E-1,-3.140281E-1,-3.1344518E-1,1.259518E0,-3.169805E-1,1.0022281E0,-1.5521883E0,-1.3353046E0,-5.525933E-2,-5.216497E-1,1.2984556E0,-1.3853076E0,1.1972573E0,-1.1283514E0,-1.0419815E0,-3.0945968E-2,7.23387E-1,-4.7525004E-1,-3.182115E-1,-3.1654304E-1,-3.1344518E-1,1.4748089E0,-1.3353046E0,6.7428917E-1,-8.054558E-1,-1.5625253E0,-9.6786946E-1,-1.3353046E0,-1.554266E0,-9.189485E-1,-1.3353046E0,1.3127309E0,4.897122E-1,-1.7149571E0,-5.773033E-1,-8.153211E-1,-1.3353046E0,-1.4586003E0,-1.0798398E0,-8.243749E-1,-5.7980325E-2,1.9748454E-1,-1.3072629E0,1.4748089E0,5.0617445E-1,4.9813065E-1,1.2984556E0,-1.0419815E0,1.4877254E0,-3.1644794E-1,-1.0419815E0,-3.0945968E-2,1.2195944E0,1.6339259E0,-2.6730618E-1,-8.7552327E-1,7.8156136E-2,-3.0034563E-1,-1.4954717E-1,-3.6673898E-1,-1.4126523E0,-6.5908176E-1,-6.20177E-1,-2.2658448E-1,-3.7936038E-1,-8.9370745E-1,-6.1623746E-1,-3.332433E-2,-1.0920586E-1,-3.543838E-1,2.4794783E-1,2.5712088E-1,-2.1939388E-1,2.5006345E-1,2.3545091E-1,-4.111962E-1,-1.0093212E-1,2.351219E-1,8.815421E-2,5.612598E-3,6.454458E-2,-3.645505E-1,-2.2899526E-1,-8.895357E-1,-3.8938227E-1,-4.465492E-2,2.5496757E-1,1.6227065E-2,2.562498E-1,1.321585E-1,4.8982885E-2,-4.5142165E-1,2.705883E-1,7.2783805E-2,-7.6711047E-1,-5.2365895E-2,1.2311156E-1,-1.1242903E-1,-3.8948086E-1,3.2376483E-2,-8.694339E-1,-5.00289E-1,2.491443E-1,1.385738E-1,2.5832793E-1,2.5178957E-1,1.3238381E-1,-1.3583894E-1,2.295322E-1,2.5237873E-1,5.6298688E-2,1.4794748E-1,-8.046016E-2,8.560242E-2,1.6605385E-1,2.4958248E-1,4.0792036E-3,-7.9305154E-1],"split_indices":[9,2,2,7,2,2,2,2,2,2,2,9,5,2,9,7,9,5,8,8,8,0,8,9,9,9,9,2,2,9,9,9,0,5,7,5,9,6,0,9,8,0,0,5,6,9,0,9,9,9,9,7,9,8,9,8,9,6,2,9,9,9,8,0,0,0,0,0,0,0,0,0,0,0,0,0,0,0,0,0,0,0,0,0,0,0,0,0,0,0,0,0,0,0,0,0,0,0,0,0,0,0,0,0,0,0,0,0,0,0,0,0,0,0,0,0,0,0,0,0,0,0,0,0,0,0,0],"split_type":[0,0,0,0,0,0,0,0,0,0,0,0,0,0,0,0,0,0,0,0,0,0,0,0,0,0,0,0,0,0,0,0,0,0,0,0,0,0,0,0,0,0,0,0,0,0,0,0,0,0,0,0,0,0,0,0,0,0,0,0,0,0,0,0,0,0,0,0,0,0,0,0,0,0,0,0,0,0,0,0,0,0,0,0,0,0,0,0,0,0,0,0,0,0,0,0,0,0,0,0,0,0,0,0,0,0,0,0,0,0,0,0,0,0,0,0,0,0,0,0,0,0,0,0,0,0,0],"sum_hessian":[1.0757731E6,6.559367E4,1.0101795E6,1.8037924E4,4.7555746E4,3.294367E5,6.807428E5,7.4721597E3,1.0565765E4,7.009656E3,4.054609E4,3.0684962E5,2.258705E4,1.9432912E5,4.864137E5,7.0667065E3,4.0545288E2,2.4982102E3,8.0675537E3,6.6809487E3,3.287073E2,3.2146842E4,8.399249E3,1.0479916E5,2.0205047E5,2.1085426E4,1.5016254E3,8.414365E4,1.1018547E5,3.6556244E5,1.2085124E5,2.6688956E2,6.799817E3,1.9770209E2,2.077508E2,1.5344534E3,9.637569E2,3.9145798E3,4.152974E3,6.329719E3,3.512294E2,2.8170431E1,3.005369E2,2.983888E4,2.3079612E3,6.617375E2,7.737511E3,2.5884672E4,7.8914484E4,3.1570553E4,1.7047992E5,1.1936947E4,9.148479E3,5.429859E2,9.586394E2,8.1138667E3,7.602978E4,6.706544E4,4.312003E4,1.6272567E5,2.0283677E5,9.137977E4,2.947147E4,1.5364001E2,1.13249535E2,6.4300938E3,3.6972318E2,6.833289E1,1.293692E2,1.5087217E1,1.9266357E2,3.4193683E2,1.1925165E3,5.304394E2,4.3331754E2,2.3326335E2,3.6813164E3,1.435484E3,2.71749E3,1.8965109E3,4.4332085E3,3.3179123E1,3.180503E2,1.0819901E1,1.7350529E1,1.417237E1,2.8636453E2,1.2486672E4,1.7352207E4,1.0351636E3,1.2727975E3,3.8884613E2,2.7289136E2,7.3847906E2,6.999032E3,3.8712998E3,2.2013371E4,1.2928263E4,6.598622E4,2.2103455E4,9.467098E3,1.600455E4,1.5447538E5,7.484565E2,1.118849E4,7.261101E3,1.8873776E3,3.798167E2,1.6316917E2,4.521361E2,5.065033E2,7.1444624E3,9.6940466E2,8.397365E3,6.763242E4,6.5531875E4,1.5335591E3,9.447075E3,3.3672957E4,4.1135887E4,1.2158979E5,5.0094355E4,1.527424E5,6.1262715E4,3.011706E4,2.9257232E4,2.142374E2],"tree_param":{"num_deleted":"0","num_feature":"11","num_nodes":"127","size_leaf_vector":"1"}},{"base_weights":[3.5377836E-1,-1.2236207E-1,9.4544935E-1,1.8192226E-1,-3.4934884E-1,4.6210182E-1,9.6451557E-1,7.9994977E-1,-6.729382E-2,-2.1729647E-1,-7.210105E-1,5.792312E-1,-1.512757E0,9.6730196E-1,-3.10323E-1,-1.2489791E0,9.758032E-1,-3.6616698E-1,5.8532673E-1,-4.092909E-1,1.0994577E0,-2.8901384E0,-2.6664686E-1,-1.2589142E-1,9.406646E-1,-1.7364652E0,4.7687018E-1,9.298586E-1,9.938851E-1,-1.1877306E0,-1.2661352E0,2.4949902E-1,8.191921E-1,-1.3018872E-1,-6.521154E-1,7.202555E-1,-2.992484E-1,-2.439304E-1,-2.430474E0,1.1183684E0,2.647772E-1,-3.564307E0,-6.1634666E-1,-1.2774415E0,3.8396254E-1,7.25255E-1,-1.5248524E0,7.282453E-1,9.7575724E-1,-4.9991235E-1,-2.0697749E0,9.230892E-1,-2.5063763E0,9.6806663E-1,-2.2821675E-1,9.983413E-1,7.6504445E-1,-2.8064847E-1,-3.1256217E-1,-2.7925664E-1,-3.1456864E-1,-8.77344E-3,2.2667344E-1,-1.5211503E-1,1.00140385E-1,-4.7199214E-1,-5.1217303E-2,1.8226318E-1,-3.4941328E0,-4.736905E-1,1.745398E-2,-8.06067E-2,2.6990846E-1,-7.342837E-1,-3.229885E-1,2.9807994E-1,2.748105E-1,-4.936168E-1,-1.2358984E0,-1.1944916E-1,-1.9753311E0,2.7164775E-1,-3.584643E-1,1.6888644E-1,-4.0929952E-1,-4.3679848E-1,2.5102532E-1,-7.69374E-1,2.8844455E-1,2.5119206E-1,1.573052E-1,2.4743387E-1,1.8650055E-1,1.3862632E-1,-4.571478E-1,-7.4097115E-1,-3.9989588E-1,2.5303808E-1,3.091584E-2,-7.939955E-1,-3.3628547E-1,2.4379572E-1,1.3255341E-1,-7.127003E-1,1.583441E-1,2.476112E-1,2.4176008E-1,2.1750472E-1,8.9781545E-3],"categories":[],"categories_nodes":[],"categories_segments":[],"categories_sizes":[],"default_left":[0,0,0,0,0,0,0,0,0,0,0,0,0,0,0,0,0,0,0,0,0,0,0,0,0,0,0,0,0,0,0,0,0,0,0,0,0,0,0,0,0,0,0,0,0,0,0,0,0,0,0,0,0,0,0,0,0,0,0,0,0,0,0,0,0,0,0,0,0,0,0,0,0,0,0,0,0,0,0,0,0,0,0,0,0,0,0,0,0,0,0,0,0,0,0,0,0,0,0,0,0,0,0,0,0,0,0,0,0],"id":13,"left_children":[1,3,5,7,9,11,13,15,17,19,21,23,25,27,-1,29,31,33,35,37,39,41,43,45,47,49,51,53,55,57,59,-1,61,63,65,67,69,71,73,75,-1,77,79,81,83,85,87,89,91,93,95,97,99,101,103,105,107,-1,-1,-1,-1,-1,-1,-1,-1,-1,-1,-1,-1,-1,-1,-1,-1,-1,-1,-1,-1,-1,-1,-1,-1,-1,-1,-1,-1,-1,-1,-1,-1,-1,-1,-1,-1,-1,-1,-1,-1,-1,-1,-1,-1,-1,-1,-1,-1,-1,-1,-1,-1],"loss_changes":[2.755622E5,3.743444E4,4.0190312E3,3.566651E4,1.5235051E4,3.830008E3,2.595625E3,2.3977922E4,3.2188133E4,5.7905195E4,8.02045E4,3.9829146E3,4.1348413E2,4.1621875E2,0E0,4.0234375E0,3.1380078E2,7.6376074E3,6.1870547E3,6.681037E4,1.4847656E1,2.1602805E4,4.4250168E4,6.308093E3,7.630664E1,3.4254858E2,1.2809827E2,7.699922E3,2.4914062E2,3.2745361E0,1.6484375E0,0E0,8.8095215E2,1.6082243E4,2.8604676E4,1.1048232E4,4.0993506E3,2.0208293E4,9.141453E3,1.0068359E1,0E0,2.440811E4,3.167618E3,1.0744684E4,2.4932605E4,2.3771104E3,8.552039E3,3.83089E1,4.738086E1,2.5590926E2,2.70469E2,6.4775467E0,5.7713547E0,1.2709062E3,1.2806012E4,1.2234375E1,3.8991577E2,0E0,0E0,0E0,0E0,0E0,0E0,0E0,0E0,0E0,0E0,0E0,0E0,0E0,0E0,0E0,0E0,0E0,0E0,0E0,0E0,0E0,0E0,0E0,0E0,0E0,0E0,0E0,0E0,0E0,0E0,0E0,0E0,0E0,0E0,0E0,0E0,0E0,0E0,0E0,0E0,0E0,0E0,0E0,0E0,0E0,0E0,0E0,0E0,0E0,0E0,0E0,0E0],"parents":[2147483647,0,0,1,1,2,2,3,3,4,4,5,5,6,6,7,7,8,8,9,9,10,10,11,11,12,12,13,13,15,15,16,16,17,17,18,18,19,19,20,20,21,21,22,22,23,23,24,24,25,25,26,26,27,27,28,28,29,29,30,30,32,32,33,33,34,34,35,35,36,36,37,37,38,38,39,39,41,41,42,42,43,43,44,44,45,45,46,46,47,47,48,48,49,49,50,50,51,51,52,52,53,53,54,54,55,55,56,56],"right_children":[2,4,6,8,10,12,14,16,18,20,22,24,26,28,-1,30,32,34,36,38,40,42,44,46,48,50,52,54,56,58,60,-1,62,64,66,68,70,72,74,76,-1,78,80,82,84,86,88,90,92,94,96,98,100,102,104,106,108,-1,-1,-1,-1,-1,-1,-1,-1,-1,-1,-1,-1,-1,-1,-1,-1,-1,-1,-1,-1,-1,-1,-1,-1,-1,-1,-1,-1,-1,-1,-1,-1,-1,-1,-1,-1,-1,-1,-1,-1,-1,-1,-1,-1,-1,-1,-1,-1,-1,-1,-1,-1],"split_conditions":[8.4567994E-1,-3.035212E-1,1.0549015E0,-3.1344518E-1,1.9748454E-1,1.9748454E-1,1.7302737E0,-1.2097015E0,-3.3890712E-1,-3.0945968E-2,3.5650596E-1,-4.7525004E-1,3.348067E0,4.1081457E0,-3.10323E-1,-4.196919E-1,-8.243749E-1,9.6387917E-1,1.7333135E-1,-5.7980325E-2,2.2530682E-1,3.6628035E-1,1.5538679E-1,-5.6891006E-1,-2.026744E-1,-1.554266E0,-8.356566E-1,7.0841426E-1,7.0205684E0,2.6085043E-1,-1.4061047E0,2.4949902E-1,-1.2442888E0,4.9813065E-1,1.2195944E0,1.4748089E0,-3.0945968E-2,-2.026744E-1,5.902044E-1,-1.3705304E0,2.647772E-1,-1.6774327E-1,1.2192459E0,4.529494E-1,-1.0115821E-1,-1.2097015E0,2.1299827E-1,-3.1344518E-1,-8.9222425E-1,3.5650596E-1,4.9813065E-1,9.7354114E-1,9.309475E-1,1.9748454E-1,3.0761468E0,1.4748089E0,1.4748089E0,-2.8064847E-1,-3.1256217E-1,-2.7925664E-1,-3.1456864E-1,-8.77344E-3,2.2667344E-1,-1.5211503E-1,1.00140385E-1,-4.7199214E-1,-5.1217303E-2,1.8226318E-1,-3.4941328E0,-4.736905E-1,1.745398E-2,-8.06067E-2,2.6990846E-1,-7.342837E-1,-3.229885E-1,2.9807994E-1,2.748105E-1,-4.936168E-1,-1.2358984E0,-1.1944916E-1,-1.9753311E0,2.7164775E-1,-3.584643E-1,1.6888644E-1,-4.0929952E-1,-4.3679848E-1,2.5102532E-1,-7.69374E-1,2.8844455E-1,2.5119206E-1,1.573052E-1,2.4743387E-1,1.8650055E-1,1.3862632E-1,-4.571478E-1,-7.4097115E-1,-3.9989588E-1,2.5303808E-1,3.091584E-2,-7.939955E-1,-3.3628547E-1,2.4379572E-1,1.3255341E-1,-7.127003E-1,1.583441E-1,2.476112E-1,2.4176008E-1,2.1750472E-1,8.9781545E-3],"split_indices":[3,3,3,9,9,9,9,9,3,9,9,9,2,3,0,3,9,9,10,9,3,3,10,9,9,6,10,9,3,10,10,0,10,9,9,9,9,9,10,10,0,3,6,9,3,9,10,9,4,9,9,3,9,9,3,9,9,0,0,0,0,0,0,0,0,0,0,0,0,0,0,0,0,0,0,0,0,0,0,0,0,0,0,0,0,0,0,0,0,0,0,0,0,0,0,0,0,0,0,0,0,0,0,0,0,0,0,0,0],"split_type":[0,0,0,0,0,0,0,0,0,0,0,0,0,0,0,0,0,0,0,0,0,0,0,0,0,0,0,0,0,0,0,0,0,0,0,0,0,0,0,0,0,0,0,0,0,0,0,0,0,0,0,0,0,0,0,0,0,0,0,0,0,0,0,0,0,0,0,0,0,0,0,0,0,0,0,0,0,0,0,0,0,0,0,0,0,0,0,0,0,0,0,0,0,0,0,0,0,0,0,0,0,0,0,0,0,0,0,0,0],"sum_hessian":[9.7814594E5,5.4198806E5,4.3615788E5,2.315657E5,3.1042234E5,1.655282E4,4.1960506E5,6.654341E4,1.650223E5,2.29044E5,8.137835E4,1.5626703E4,9.261173E2,4.1907938E5,5.2567596E2,5.2593076E3,6.12841E4,1.1318753E5,5.183476E4,1.9989781E5,2.9146184E4,1.4093024E4,6.728533E4,5.2957812E3,1.0330921E4,8.3262634E2,9.349101E1,1.7401244E5,2.4506695E5,1.1661855E3,4.0931223E3,5.067227E4,1.0611833E4,6.2012945E4,5.1174582E4,4.4974723E4,6.8600396E3,1.847813E5,1.5116522E4,1.7646326E4,1.1499858E4,1.0869655E4,3.2233691E3,2.6348703E4,4.0936625E4,3.2928496E3,2.0029318E3,1.467819E3,8.863103E3,1.7731206E2,6.553143E2,8.192731E1,1.1563701E1,1.6845483E5,5.557607E3,2.4038258E5,4.684366E3,6.94419E2,4.7176654E2,1.6532645E2,3.927796E3,1.0829114E3,9.528922E3,3.2535037E4,2.947791E4,1.3389501E4,3.7785082E4,4.492564E4,4.908017E1,1.2769747E3,5.583065E3,1.7409927E5,1.0682021E4,1.0225593E4,4.8909297E3,1.3875659E3,1.625876E4,5.1875435E3,5.6821113E3,3.1670654E3,5.630375E1,1.7749938E3,2.4573709E4,3.5704703E4,5.2319224E3,3.423146E2,2.9505352E3,1.2602911E3,7.426406E2,3.5472284E2,1.1130962E3,7.9791494E3,8.8395306E2,9.957664E1,7.773542E1,2.1356644E2,4.4174783E2,7.257094E1,9.35637E0,6.053423E0,5.5102777E0,1.6191225E5,6.5425854E3,1.369933E3,4.187674E3,2.1380331E5,2.6579266E4,4.049544E3,6.3482227E2],"tree_param":{"num_deleted":"0","num_feature":"11","num_nodes":"109","size_leaf_vector":"1"}},{"base_weights":[3.2266575E-1,-7.5779594E-2,9.2475176E-1,1.469515E-1,-2.666383E-1,4.433822E-1,9.5448035E-1,7.339203E-1,-5.054115E-2,-2.0914184E-1,-9.481737E-1,5.6018037E-1,-1.468288E0,9.572282E-1,-2.9379004E-1,-1.3440489E0,9.40739E-1,-3.012362E-1,2.9130575E-1,-2.7593735E-1,1.0627874E0,-9.865831E-2,-2.1249077E0,1.5126867E-2,9.278616E-1,-1.9595119E0,-4.054904E-1,9.1386783E-1,9.8835677E-1,-1.1976533E0,-2.2309127E0,1.0212344E0,6.3467443E-1,-2.1614975E-1,-1.0855511E0,4.811557E-1,-1.504262E-1,-4.8305413E-1,7.12335E-2,1.054007E0,3.9940003E-1,1.2852558E-2,-2.8986688E0,-3.0250118E0,-1.4339207E0,7.445827E-1,-8.6315626E-1,7.3521346E-1,9.6829677E-1,-2.2233489E0,1.0999118E-2,5.833636E-1,-2.1788354E0,9.770911E-1,1.6286871E-1,9.940586E-1,7.121065E-1,-2.941152E-1,-3.301895E-1,-3.730793E-1,-7.2334886E-1,2.485053E-1,3.0880842E-1,1.5976325E-2,2.3442367E-1,-3.2216316E-1,-3.900106E-2,-8.4417987E-1,-1.7862584E-1,1.4891519E-1,-1.2745718E-2,-1.9037236E-1,1.0778787E-2,-7.772271E-2,-1.7475276E-1,1.3879144E-1,-7.1322724E-2,2.5799593E-1,2.7838475E-1,4.7445692E-2,-3.3676487E-1,-1.1806145E0,-2.332938E-1,-8.873068E-1,-4.3454674E-1,-4.0019983E-1,-3.0426463E-1,-3.4442458E-1,2.5216565E-1,-3.3109203E-1,2.875487E-1,1.4943847E-1,2.4511631E-1,2.4763379E-1,1.7989491E-1,-9.568511E-1,-3.7942612E-1,2.4687141E-1,-5.014396E-1,2.24246E-1,-4.579386E-1,-8.622901E-1,-3.787185E-1,2.0606393E-1,2.4475612E-1,-8.7425196E-1,1.9774726E-1,2.4677157E-1,2.3900668E-1,2.0837271E-1,3.419824E-3],"categories":[],"categories_nodes":[],"categories_segments":[],"categories_sizes":[],"default_left":[0,0,0,0,0,0,0,0,0,0,0,0,0,0,0,0,0,0,0,0,0,0,0,0,0,0,0,0,0,0,0,0,0,0,0,0,0,0,0,0,0,0,0,0,0,0,0,0,0,0,0,0,0,0,0,0,0,0,0,0,0,0,0,0,0,0,0,0,0,0,0,0,0,0,0,0,0,0,0,0,0,0,0,0,0,0,0,0,0,0,0,0,0,0,0,0,0,0,0,0,0,0,0,0,0,0,0,0,0,0,0],"id":14,"left_children":[1,3,5,7,9,11,13,15,17,19,21,23,25,27,-1,29,31,33,35,37,39,41,43,45,47,49,51,53,55,57,59,61,63,65,67,69,71,73,75,77,-1,79,81,83,85,87,89,91,93,95,97,99,101,103,105,107,109,-1,-1,-1,-1,-1,-1,-1,-1,-1,-1,-1,-1,-1,-1,-1,-1,-1,-1,-1,-1,-1,-1,-1,-1,-1,-1,-1,-1,-1,-1,-1,-1,-1,-1,-1,-1,-1,-1,-1,-1,-1,-1,-1,-1,-1,-1,-1,-1,-1,-1,-1,-1,-1,-1],"loss_changes":[2.115114E5,2.2554254E4,5.0240938E3,2.8382111E4,1.1196143E4,4.5612217E3,1.9476562E3,2.6491566E4,1.57001455E4,2.2386684E4,2.2221043E4,3.8576611E3,6.133259E2,4.4484375E2,0E0,7.217949E2,1.3804961E3,7.0530176E3,6.5002104E3,1.80014E4,6.1993164E1,4.031071E3,5.7920547E3,4.9692246E3,8.8831055E1,4.1813452E2,6.5551807E2,6.5535625E3,3.0207812E2,4.1362305E0,3.9109912E2,1.667539E2,2.0832466E3,6.0573677E3,8.745938E3,3.4890664E3,2.7986125E3,5.914375E3,1.6475332E4,9.0546875E0,0E0,3.0536453E3,1.807522E3,2.8774648E3,1.9578223E2,2.489378E3,3.3893472E3,6.638611E1,7.425488E1,7.9841724E2,1.9504234E2,1.9073293E2,1.07937256E2,2.2517969E2,2.5226443E4,1.740625E1,3.5382043E2,0E0,0E0,0E0,0E0,0E0,0E0,0E0,0E0,0E0,0E0,0E0,0E0,0E0,0E0,0E0,0E0,0E0,0E0,0E0,0E0,0E0,0E0,0E0,0E0,0E0,0E0,0E0,0E0,0E0,0E0,0E0,0E0,0E0,0E0,0E0,0E0,0E0,0E0,0E0,0E0,0E0,0E0,0E0,0E0,0E0,0E0,0E0,0E0,0E0,0E0,0E0,0E0,0E0,0E0],"parents":[2147483647,0,0,1,1,2,2,3,3,4,4,5,5,6,6,7,7,8,8,9,9,10,10,11,11,12,12,13,13,15,15,16,16,17,17,18,18,19,19,20,20,21,21,22,22,23,23,24,24,25,25,26,26,27,27,28,28,29,29,30,30,31,31,32,32,33,33,34,34,35,35,36,36,37,37,38,38,39,39,41,41,42,42,43,43,44,44,45,45,46,46,47,47,48,48,49,49,50,50,51,51,52,52,53,53,54,54,55,55,56,56],"right_children":[2,4,6,8,10,12,14,16,18,20,22,24,26,28,-1,30,32,34,36,38,40,42,44,46,48,50,52,54,56,58,60,62,64,66,68,70,72,74,76,78,-1,80,82,84,86,88,90,92,94,96,98,100,102,104,106,108,110,-1,-1,-1,-1,-1,-1,-1,-1,-1,-1,-1,-1,-1,-1,-1,-1,-1,-1,-1,-1,-1,-1,-1,-1,-1,-1,-1,-1,-1,-1,-1,-1,-1,-1,-1,-1,-1,-1,-1,-1,-1,-1,-1,-1,-1,-1,-1,-1,-1,-1,-1,-1,-1,-1],"split_conditions":[7.91267E-1,-2.5754672E-1,1.0549015E0,-3.1344518E-1,9.6387917E-1,1.9748454E-1,1.7302737E0,-1.2097015E0,-3.5304287E-1,7.23387E-1,-9.6297055E-2,-4.7525004E-1,-3.1422547E-1,4.1081457E0,-2.9379004E-1,-2.812129E-1,-8.243749E-1,-3.140282E-1,-3.080132E-1,1.3294485E-1,2.1340978E-1,-3.1364986E-1,1.0022281E0,-5.6891006E-1,-2.026744E-1,1.583997E0,-9.485345E-1,1.9748454E-1,7.0205684E0,-2.92982E-1,-1.3353046E0,-2.812129E-1,-7.0601356E-1,